{
  "schemaVersion": "cursor-prediction-v16-runtime-candidate/1",
  "modelId": "mlp_fsmn_h8_hardtanh_blend75teacher25label_q0p125_lag0p375",
  "family": "tiny_mlp_fsmn",
  "target": "blend75teacher25label",
  "cost": {
    "parameterCount": 730,
    "estimatedMacs": 712,
    "branches": 0,
    "activation": "hardtanh",
    "simdFriendly": true
  },
  "inputContract": {
    "refreshBucket": "60Hz",
    "source": "POC13 scalar_features/history normalized with sourceNormalization, then POC16 FSMN projection normalized with featureMean/featureStd.",
    "featureOrder": "scalar[25], seq_last[9], exp_decay_2[9], exp_decay_4[9], exp_decay_8[9], last4_mean[9], last8_mean[9]"
  },
  "sourceNormalization": {
    "scalarFeatureCount": 25,
    "sequenceLength": 16,
    "sequenceFeatureCount": 9,
    "scalarMean": [
      0.2241038978099823,
      1,
      0,
      1,
      0.42226558923721313,
      0.2706699073314667,
      0.15334488451480865,
      0.10437314212322235,
      0.09614657610654831,
      -0.0012199190678074956,
      -0.0009961852338165045,
      -0.0014158292906358838,
      -0.0009754895581863821,
      -0.0010889688273891807,
      -0.0006625740206800401,
      -0.0007272264338098466,
      -0.00047075373004190624,
      -0.0005431881290860474,
      -0.0004196845111437142,
      0.03647180646657944,
      0.01908177137374878,
      0.7416412234306335,
      0.000528307631611824,
      -0.0002555379760451615,
      -0.00019157450878992677
    ],
    "scalarStd": [
      0.04857345297932625,
      9.999999974752427e-7,
      9.999999974752427e-7,
      9.999999974752427e-7,
      0.48080891370773315,
      0.7583799958229065,
      0.3914307653903961,
      0.21464626491069794,
      0.1720551997423172,
      0.10481658577919006,
      0.06355292350053787,
      0.08705241233110428,
      0.049463510513305664,
      0.045999687165021896,
      0.02456449717283249,
      0.024231519550085068,
      0.014597292989492416,
      0.020107068121433258,
      0.011582802049815655,
      0.06907469034194946,
      0.03538140654563904,
      0.39817509055137634,
      0.010321558453142643,
      0.009774189442396164,
      0.00559052312746644
    ],
    "sequenceMean": [
      1,
      0.5178040862083435,
      0.0008092065108940005,
      0.0007010230328887701,
      -0.0003783400752581656,
      -0.0003524457279127091,
      -0.0007039300980977714,
      -0.0006323964917100966,
      0.2496117800474167
    ],
    "sequenceStd": [
      9.999999974752427e-7,
      0.4099465012550354,
      0.05501028150320053,
      0.030694635584950447,
      0.05201470106840134,
      0.0296713188290596,
      0.09753555059432983,
      0.05627205967903137,
      0.3530430495738983
    ],
    "note": "Runtime source features are the POC v13 scalar_features/history values normalized by these arrays before the FSMN projection."
  },
  "runtime": {
    "featureKind": "fsmn",
    "type": "mlp",
    "hidden": 8,
    "activation": "hardtanh",
    "quantizationStep": 0.125,
    "lagCompensationPx": 0.375,
    "featureMean": [
      -0.000029284930860740133,
      0,
      0,
      0,
      -0.0000024327698611159576,
      0.000002317746975677437,
      0.000005855470135429641,
      -7.639668808678834e-8,
      -9.21763785299845e-7,
      3.0159807096197255e-8,
      1.6043152584188647e-8,
      -2.3934221715649073e-8,
      -2.1996939381097036e-8,
      7.351414410550206e-8,
      4.30754418800916e-8,
      -2.721273872907659e-8,
      -3.5454203128892914e-8,
      -2.7408541214413162e-8,
      1.3250883057480678e-7,
      -0.000016461282939417288,
      -0.000035889715945813805,
      0.0000756810259190388,
      1.5008441156538765e-9,
      6.32173922099355e-8,
      4.770494399508607e-8,
      0,
      -1.102156639099121,
      -0.014710095711052418,
      -0.022838616743683815,
      -0.005045859143137932,
      -0.006756337825208902,
      -0.00529023353010416,
      -0.006464799400418997,
      -0.13551373779773712,
      0,
      -0.9027276635169983,
      -0.010575728490948677,
      -0.016945460811257362,
      -0.004097678232938051,
      -0.003982506692409515,
      -0.00382804567925632,
      -0.003281570738181472,
      -0.10366108268499374,
      0,
      -0.654893159866333,
      -0.00732658663764596,
      -0.011848706752061844,
      -0.0022145137190818787,
      -0.002045060507953167,
      -0.0020136015955358744,
      -0.0016077400650829077,
      -0.0570378340780735,
      0,
      -0.38395795226097107,
      -0.004215747583657503,
      -0.006818557158112526,
      -0.0010627562878653407,
      -0.0009088427759706974,
      -0.0009407881298102438,
      -0.000688533007632941,
      -0.02708986960351467,
      0,
      -0.9268156886100769,
      -0.009883662685751915,
      -0.01640467159450054,
      -0.0035203949082642794,
      -0.0029777816962450743,
      -0.0035204358864575624,
      -0.002295764395967126,
      -0.06631813943386078,
      0,
      -0.6234703660011292,
      -0.006612882949411869,
      -0.010708502493798733,
      -0.0007494561723433435,
      -0.0011815926991403103,
      -0.0004939215141348541,
      -0.0008048687595874071,
      -0.023502618074417114
    ],
    "featureStd": [
      0.9999837875366211,
      0.05000000074505806,
      0.05000000074505806,
      0.05000000074505806,
      0.9999998807907104,
      0.9996525049209595,
      1.0000666379928589,
      0.9999809265136719,
      0.999968945980072,
      1.000032663345337,
      1.0000574588775635,
      1.0000381469726562,
      1.0000869035720825,
      1.0000543594360352,
      1.0001299381256104,
      1.0000407695770264,
      1.0001376867294312,
      1.0000038146972656,
      1.0000648498535156,
      1.0000144243240356,
      1.000056266784668,
      1.00006902217865,
      0.9995421171188354,
      0.9999544620513916,
      0.99994295835495,
      0.05000000074505806,
      0.1832589954137802,
      0.05000000074505806,
      0.05000000074505806,
      1.0688769817352295,
      1.1243948936462402,
      1.0746852159500122,
      1.1294517517089844,
      0.8173587918281555,
      0.05000000074505806,
      0.2179408073425293,
      0.23274673521518707,
      0.23779526352882385,
      0.640028178691864,
      0.6395536065101624,
      0.6420717835426331,
      0.6528753638267517,
      0.3907790184020996,
      0.05000000074505806,
      0.31175318360328674,
      0.41552579402923584,
      0.41939619183540344,
      0.5340860486030579,
      0.526110827922821,
      0.5347579121589661,
      0.531694233417511,
      0.3346315622329712,
      0.05000000074505806,
      0.42677465081214905,
      0.5995476841926575,
      0.601499617099762,
      0.48168495297431946,
      0.4699147343635559,
      0.48209652304649353,
      0.4699242413043976,
      0.3241949677467346,
      0.05000000074505806,
      0.21171244978904724,
      0.2696164548397064,
      0.27488642930984497,
      0.5870794057846069,
      0.569213330745697,
      0.5890822410583496,
      0.5811892151832581,
      0.40262606739997864,
      0.05000000074505806,
      0.3309006989002228,
      0.46458545327186584,
      0.47179660201072693,
      0.5011956095695496,
      0.4851403534412384,
      0.4990905523300171,
      0.4838479161262512,
      0.33992457389831543
    ],
    "targetScale": [
      2.0457353591918945,
      1.162302017211914
    ],
    "layers": {
      "inputHidden": {
        "weights": [
          [
            0.08556803315877914,
            -0.049645669758319855,
            0.07154183089733124,
            0.07176364958286285,
            0.029379336163401604,
            -0.03930847719311714,
            0.08675254136323929,
            0.04329191520810127,
            0.050828009843826294,
            0.1061772033572197,
            -0.05236896872520447,
            -0.024223050102591515,
            0.06182834133505821,
            -0.26822277903556824,
            -0.029999176040291786,
            0.02767018973827362,
            0.05982092395424843,
            0.09173114597797394,
            -0.0324469693005085,
            -0.061251457780599594,
            -0.12227444350719452,
            0.0006220096256583929,
            -0.23476894199848175,
            -0.02099468745291233,
            0.023330481722950935,
            0.08405019342899323,
            0.03173933923244476,
            0.030078336596488953,
            0.018428906798362732,
            -0.0850953757762909,
            0.007055433467030525,
            -0.03430740535259247,
            0.0003266710846219212,
            0.06462381780147552,
            0.07640329003334045,
            -0.08119620382785797,
            -0.03043357841670513,
            -0.049746882170438766,
            -0.0799480453133583,
            -0.0186541099101305,
            -0.006143289618194103,
            -0.01432272419333458,
            0.0345727764070034,
            -0.0026185065507888794,
            -0.07617482542991638,
            0.006568447221070528,
            -0.049145787954330444,
            0.014243314042687416,
            0.0069596110843122005,
            0.002018343424424529,
            -0.09096594154834747,
            0.007243812084197998,
            -0.06723432242870331,
            0.06188829243183136,
            0.060138966888189316,
            -0.0057967351749539375,
            -0.05730092525482178,
            -0.01868731714785099,
            -0.10255395621061325,
            -0.2614898085594177,
            0.039740581065416336,
            -0.08916643261909485,
            0.061740364879369736,
            -0.04378163442015648,
            -0.018467601388692856,
            0.033056244254112244,
            0.03829866647720337,
            -0.05884038656949997,
            0.11650454252958298,
            0.06852006167173386,
            -0.018772438168525696,
            -0.04433022066950798,
            -0.07374539226293564,
            -0.12990054488182068,
            -0.02280084416270256,
            -0.08812569081783295,
            0.0074561284855008125,
            -0.0035491499584168196,
            -0.047927048057317734
          ],
          [
            -0.024732058867812157,
            0.03750239312648773,
            0.030776366591453552,
            0.06393331289291382,
            -0.36022481322288513,
            -0.14245545864105225,
            0.15976838767528534,
            -0.060748063027858734,
            -0.1197843924164772,
            0.10001868009567261,
            -0.051536235958337784,
            0.6097093224525452,
            0.09978041052818298,
            0.3693667948246002,
            0.05579402297735214,
            0.005012175999581814,
            -0.05972669646143913,
            -0.13779732584953308,
            0.012017791159451008,
            0.14491483569145203,
            -0.03213776648044586,
            -0.208980992436409,
            -0.265078067779541,
            -0.11308206617832184,
            0.004082683008164167,
            -0.02168223261833191,
            -0.45699599385261536,
            -0.05170847475528717,
            0.02374480664730072,
            -0.0999961718916893,
            -0.030754270032048225,
            -0.006503460928797722,
            0.0081951804459095,
            0.1378740519285202,
            0.0009152274578809738,
            -0.15261243283748627,
            -0.07816045731306076,
            -0.04192642122507095,
            0.0031545197125524282,
            -0.0481950007379055,
            -0.02118278108537197,
            -0.05535053834319115,
            0.20120246708393097,
            0.09951955080032349,
            -0.1302902102470398,
            -0.10549753159284592,
            0.07746343314647675,
            0.031055428087711334,
            0.034524012356996536,
            -0.17056845128536224,
            -0.12194833159446716,
            0.057800229638814926,
            -0.09851247817277908,
            0.04518356919288635,
            -0.12332534044981003,
            0.003446582006290555,
            0.12685354053974152,
            -0.05551480874419212,
            0.022121241316199303,
            -0.027158962562680244,
            -0.06613588333129883,
            -0.07275200635194778,
            -0.08257380872964859,
            -0.09382697939872742,
            0.0036640558391809464,
            -0.06761035323143005,
            0.0055588060058653355,
            -0.11614998430013657,
            -0.030548304319381714,
            0.004842209629714489,
            0.07529929280281067,
            -0.10376367717981339,
            -0.04415323957800865,
            -0.1579914689064026,
            0.06048502027988434,
            -0.06807179749011993,
            -0.09158756583929062,
            -0.04482821002602577,
            -0.06020354479551315
          ],
          [
            0.09509430080652237,
            -0.010556496679782867,
            0.006293490529060364,
            -0.025517538189888,
            -0.2883410155773163,
            -0.030873991549015045,
            -0.11813865602016449,
            0.1242753192782402,
            -0.041780389845371246,
            -0.23319514095783234,
            -0.36695224046707153,
            -0.41804397106170654,
            -0.6688941121101379,
            -0.2037203460931778,
            -0.21434752643108368,
            -0.052037082612514496,
            -0.05209813266992569,
            0.03472588583827019,
            0.13363125920295715,
            0.022340716794133186,
            -0.1725599467754364,
            -0.15216152369976044,
            0.2961694896221161,
            0.08778142929077148,
            0.07291506975889206,
            -0.08487876504659653,
            -0.40168115496635437,
            -0.004202224314212799,
            -0.0824735090136528,
            -0.1283801943063736,
            -0.37629255652427673,
            -0.07036538422107697,
            -0.28839439153671265,
            0.03551379591226578,
            0.0950082391500473,
            -0.1744287759065628,
            0.13168960809707642,
            0.06850101053714752,
            -0.18311414122581482,
            -0.09039679169654846,
            -0.16578184068202972,
            -0.0886472761631012,
            0.16309908032417297,
            -0.07609966397285461,
            -0.046570561826229095,
            -0.012525485828518867,
            0.026124652475118637,
            -0.08000965416431427,
            -0.15995822846889496,
            -0.029423978179693222,
            -0.18969197571277618,
            0.0787879005074501,
            -0.02959713339805603,
            -0.1978345513343811,
            -0.056029632687568665,
            -0.05767722800374031,
            -0.009247278794646263,
            -0.5470421314239502,
            0.11143822968006134,
            -0.4891371428966522,
            -0.04486389830708504,
            0.05136291682720184,
            0.014686914160847664,
            0.03920463100075722,
            0.10363447666168213,
            0.07349617034196854,
            0.042723383754491806,
            0.14374980330467224,
            -0.05026049166917801,
            0.004268954508006573,
            -0.078514963388443,
            -0.013495463877916336,
            0.15167860686779022,
            -0.46664193272590637,
            0.05741338059306145,
            0.23036018013954163,
            0.021600138396024704,
            0.012384677305817604,
            -0.00986490398645401
          ],
          [
            -0.1075105369091034,
            -0.11223383992910385,
            -0.039173975586891174,
            0.0884440541267395,
            0.278478741645813,
            0.06500612944364548,
            0.14219312369823456,
            -0.1236959919333458,
            0.09913063049316406,
            0.1452166587114334,
            0.3448312282562256,
            0.554908812046051,
            0.7255165576934814,
            0.38259488344192505,
            0.47483208775520325,
            0.15978294610977173,
            0.09484986215829849,
            -0.15046504139900208,
            0.0038545550778508186,
            0.03588827699422836,
            0.012776528485119343,
            0.13123661279678345,
            0.6193084716796875,
            -0.08613348752260208,
            0.03544098883867264,
            -0.06628505885601044,
            0.3722361922264099,
            -0.10851868987083435,
            -0.07961827516555786,
            0.07198651134967804,
            0.3157169818878174,
            0.22274109721183777,
            0.381038635969162,
            -0.14322248101234436,
            -0.04496518522500992,
            0.2212134450674057,
            -0.05302175134420395,
            -0.2955764830112457,
            0.16676752269268036,
            0.10735971480607986,
            0.21085740625858307,
            0.11359109729528427,
            -0.2076631486415863,
            -0.10462667793035507,
            0.03330715745687485,
            -0.07263605296611786,
            -0.1401410549879074,
            0.025874987244606018,
            -0.08567594736814499,
            -0.11550299823284149,
            0.021531710401177406,
            0.03283850848674774,
            -0.015466570854187012,
            0.02094876579940319,
            0.14461375772953033,
            0.1349683254957199,
            -0.008868444710969925,
            -0.14702533185482025,
            -0.24442599713802338,
            -0.0907556563615799,
            0.08825124055147171,
            -0.03515625,
            0.03681700676679611,
            -0.3488548696041107,
            -0.40920329093933105,
            -0.03406647592782974,
            -0.08605265617370605,
            -0.23830728232860565,
            -0.16542859375476837,
            -0.03445029258728027,
            0.10482443869113922,
            0.08413474261760712,
            -0.10665523260831833,
            -0.11986507475376129,
            0.023733118548989296,
            -0.12893091142177582,
            -0.11460105329751968,
            -0.08309518545866013,
            -0.034280043095350266
          ],
          [
            0.021112589165568352,
            -0.01887301355600357,
            -0.093736432492733,
            0.040299683809280396,
            0.3618569076061249,
            0.026860905811190605,
            0.17143262922763824,
            -0.14419357478618622,
            0.09480220079421997,
            0.07463443279266357,
            0.34070107340812683,
            0.1460086703300476,
            0.7488420605659485,
            0.101964570581913,
            0.3336251676082611,
            0.0585639625787735,
            -0.01516820676624775,
            -0.06195845454931259,
            0.1176636666059494,
            0.08090300112962723,
            0.10613296926021576,
            0.11151496320962906,
            -0.13396941125392914,
            0.05521879345178604,
            -0.08420882374048233,
            0.036084190011024475,
            0.350902795791626,
            -0.027556858956813812,
            0.07773864269256592,
            0.20139329135417938,
            0.282612681388855,
            0.1454971730709076,
            0.2599909007549286,
            0.011495213024318218,
            -0.014299198985099792,
            0.014660559594631195,
            -0.07535208761692047,
            -0.2783910036087036,
            0.11457601189613342,
            0.25982871651649475,
            0.14940400421619415,
            0.21733155846595764,
            -0.12550635635852814,
            -0.0016187205910682678,
            0.09133797138929367,
            0.0024276096373796463,
            -0.059742607176303864,
            0.0840507224202156,
            0.06293944269418716,
            0.014119868166744709,
            0.01479397527873516,
            -0.006390649359673262,
            0.09888632595539093,
            0.05250639095902443,
            0.0546310693025589,
            0.05167534947395325,
            0.18391664326190948,
            -0.3168264627456665,
            0.21494461596012115,
            -0.24951311945915222,
            0.04754819720983505,
            -0.0028986483812332153,
            0.023537009954452515,
            -0.02766731195151806,
            -0.1329692304134369,
            -0.06521493941545486,
            -0.010177732445299625,
            -0.07059095054864883,
            -0.1024777814745903,
            0.024134637787938118,
            0.006708420813083649,
            0.014766782522201538,
            -0.03915329650044441,
            -0.26805946230888367,
            -0.15738442540168762,
            -0.030370621010661125,
            0.027313942089676857,
            -0.1568111628293991,
            -0.021586475893855095
          ],
          [
            0.09011804312467575,
            0.03843212127685547,
            0.0387645959854126,
            -0.11018986999988556,
            0.05156579241156578,
            -0.03780241310596466,
            0.06714040786027908,
            0.043588053435087204,
            0.046237699687480927,
            -0.052308131009340286,
            -0.11544694006443024,
            -0.12446878850460052,
            -0.16892865300178528,
            -0.25734519958496094,
            -0.024881117045879364,
            0.02706453576683998,
            0.039642203599214554,
            0.055343225598335266,
            0.09650889784097672,
            0.0037116652820259333,
            -0.15953053534030914,
            0.008987576700747013,
            0.004347958602011204,
            0.08596229553222656,
            0.10324938595294952,
            -0.05446385219693184,
            -0.07259979844093323,
            0.08942896127700806,
            -0.05637845769524574,
            -0.012966243550181389,
            0.08192088454961777,
            -0.002254319377243519,
            -0.0412357933819294,
            0.01144335325807333,
            0.0001311199739575386,
            0.027262672781944275,
            -0.05010947957634926,
            0.017623724415898323,
            0.040423132479190826,
            0.13532936573028564,
            0.17723752558231354,
            -0.02464768849313259,
            -0.03518247976899147,
            0.09210425615310669,
            -0.020052660256624222,
            -0.07481712102890015,
            0.1031825840473175,
            -0.033952441066503525,
            -0.018640799447894096,
            -0.07920513302087784,
            0.055211763828992844,
            0.06531483680009842,
            0.09621492028236389,
            -0.008170153945684433,
            -0.01463355589658022,
            0.17593885958194733,
            -0.06955753266811371,
            -0.022917278110980988,
            -0.12200868874788284,
            -0.16751611232757568,
            0.026886865496635437,
            0.08575548231601715,
            0.03886856138706207,
            -0.005550652742385864,
            -0.19298364222049713,
            -0.014896211214363575,
            0.1638386845588684,
            0.029524685814976692,
            0.1090746745467186,
            0.07140716910362244,
            0.06962770223617554,
            -0.05727256461977959,
            0.06364624202251434,
            -0.049921028316020966,
            -0.06939233094453812,
            -0.09633810073137283,
            0.010359110310673714,
            0.0029560867697000504,
            -0.05132264271378517
          ],
          [
            0.03463144600391388,
            -0.084383524954319,
            0.029429659247398376,
            -0.07877355813980103,
            -0.3436264395713806,
            -0.06514298915863037,
            0.14003463089466095,
            -0.05788693204522133,
            -0.1157749593257904,
            0.06447170674800873,
            -0.09591374546289444,
            0.6006625294685364,
            -0.020004766061902046,
            0.3907877504825592,
            -0.020881859585642815,
            0.0017872513271868229,
            -0.049800243228673935,
            -0.16966882348060608,
            -0.021495474502444267,
            -0.007115945219993591,
            0.12058421224355698,
            -0.22605368494987488,
            -0.30142441391944885,
            -0.1872067153453827,
            0.07706727087497711,
            0.017786219716072083,
            -0.3125728964805603,
            0.0431034117937088,
            0.07960428297519684,
            -0.09591776132583618,
            0.09073948860168457,
            -0.022888289764523506,
            0.020272688940167427,
            0.164346382021904,
            0.08164337277412415,
            -0.2542860805988312,
            0.046858783811330795,
            0.06511128693819046,
            0.16749367117881775,
            -0.1383521407842636,
            -0.006542565766721964,
            -0.015261847525835037,
            0.15214796364307404,
            0.007644087076187134,
            -0.09620710462331772,
            -0.12592028081417084,
            0.045279212296009064,
            0.03730197995901108,
            -0.0415785126388073,
            -0.15477396547794342,
            0.0357646681368351,
            0.07385643571615219,
            0.009104758501052856,
            -0.1730426549911499,
            0.02525121346116066,
            -0.08689065277576447,
            0.04020332917571068,
            0.16406705975532532,
            -0.22354820370674133,
            0.2066812515258789,
            0.07318995147943497,
            -0.09652570635080338,
            0.028769198805093765,
            -0.1530517190694809,
            0.07428651303052902,
            0.06573358178138733,
            -0.10089626908302307,
            -0.23049142956733704,
            -0.06722678989171982,
            -0.03513091057538986,
            -0.02495124191045761,
            -0.02792319655418396,
            -0.16391198337078094,
            -0.007318392395973206,
            0.0824582502245903,
            -0.029796041548252106,
            0.046373505145311356,
            0.01091843657195568,
            -0.06696775555610657
          ],
          [
            -0.015108526684343815,
            0.02392512559890747,
            0.005419626832008362,
            0.07975031435489655,
            -0.46856436133384705,
            -0.09785690903663635,
            0.18314909934997559,
            -0.0051580569706857204,
            -0.0912172794342041,
            -0.06419022381305695,
            -0.07779908180236816,
            0.41358378529548645,
            -0.008765419945120811,
            0.22019118070602417,
            -0.014283429831266403,
            -0.06759258359670639,
            -0.017903365194797516,
            -0.02050722949206829,
            -0.08131653815507889,
            -0.061531420797109604,
            -0.047277193516492844,
            -0.22545045614242554,
            -0.1298094540834427,
            -0.09892366826534271,
            0.10833393782377243,
            -0.06311187893152237,
            -0.30886057019233704,
            -0.06383432447910309,
            -0.0899716317653656,
            0.008946995250880718,
            0.04189297556877136,
            0.008385879918932915,
            -0.03157719969749451,
            0.10057899355888367,
            -0.07303374260663986,
            -0.1596629023551941,
            -0.03500153496861458,
            -0.046517305076122284,
            0.03836194798350334,
            -0.11009398847818375,
            -0.07445451617240906,
            0.0894223228096962,
            0.18330781161785126,
            0.10978059470653534,
            -0.12532933056354523,
            -0.1542317271232605,
            0.058620352298021317,
            0.02635311707854271,
            0.06934163719415665,
            0.06761603057384491,
            -0.07282932847738266,
            0.03749775514006615,
            0.04631736874580383,
            -0.04583544656634331,
            -0.13958312571048737,
            -0.05360398441553116,
            0.19928881525993347,
            -0.09710148721933365,
            0.1326877921819687,
            -0.0021995326969772577,
            0.035158704966306686,
            -0.0016192793846130371,
            0.018101340159773827,
            0.05823105573654175,
            0.01516407448798418,
            -0.07662464678287506,
            -0.09465403854846954,
            -0.09009421616792679,
            0.01357930339872837,
            -0.04805491492152214,
            0.000901808962225914,
            -0.03642548993229866,
            0.019641589373350143,
            -0.09573938697576523,
            0.07514992356300354,
            -0.0763004720211029,
            -0.0038781617768108845,
            0.058764223009347916,
            -0.07546156644821167
          ]
        ],
        "bias": [
          -0.005194917321205139,
          -0.3710460066795349,
          -0.299638569355011,
          0.2991296052932739,
          0.17074082791805267,
          0.03812882676720619,
          -0.3073837161064148,
          -0.34666404128074646
        ]
      },
      "hiddenHidden": {
        "weights": [
          [
            -0.0717516615986824,
            -0.24284088611602783,
            -0.5137231945991516,
            -0.10008564591407776,
            -0.0035615768283605576,
            0.30207547545433044,
            0.22165323793888092,
            0.09525617957115173
          ],
          [
            0.3751910924911499,
            0.1993846446275711,
            -0.051093507558107376,
            0.22220227122306824,
            -0.015436242334544659,
            -0.29816296696662903,
            0.24304260313510895,
            -0.1554524004459381
          ],
          [
            0.5384892821311951,
            0.17755243182182312,
            -0.22327476739883423,
            0.05591950565576553,
            -0.19660192728042603,
            -0.10819652676582336,
            0.09666606783866882,
            -0.22358638048171997
          ],
          [
            0.460574746131897,
            -0.08506492525339127,
            0.20068979263305664,
            0.3912007808685303,
            0.07632241398096085,
            -0.46373236179351807,
            -0.23134924471378326,
            -0.4823029339313507
          ],
          [
            -0.20946449041366577,
            0.24571533501148224,
            -0.0824744701385498,
            0.40965157747268677,
            0.007409123703837395,
            -0.1607612520456314,
            0.30250123143196106,
            -0.5023404955863953
          ],
          [
            0.18195264041423798,
            0.026278367266058922,
            0.24148502945899963,
            -0.20234498381614685,
            -0.5048215389251709,
            0.35384124517440796,
            0.5187218189239502,
            -0.42803943157196045
          ],
          [
            0.2553880512714386,
            0.3307178020477295,
            0.4425915777683258,
            0.10256065428256989,
            0.20921143889427185,
            -0.2753193974494934,
            0.026170583441853523,
            0.14210280776023865
          ],
          [
            -0.04791814833879471,
            0.08648443967103958,
            -0.017554668709635735,
            0.09945917874574661,
            -0.3549972474575043,
            0.1968710869550705,
            0.40540191531181335,
            -0.19892700016498566
          ]
        ],
        "bias": [
          0.005929631646722555,
          -0.08388932794332504,
          0.07975731045007706,
          0.15561550855636597,
          -0.08254314213991165,
          -0.29204538464546204,
          0.06410545110702515,
          0.13177530467510223
        ]
      },
      "hiddenOutput": {
        "weights": [
          [
            0.07647574692964554,
            -0.5233863592147827,
            -0.4188649654388428,
            -0.5348928570747375,
            -0.7013766765594482,
            -0.5592133402824402,
            0.005735657177865505,
            -0.5662750601768494
          ],
          [
            0.6904832720756531,
            -0.3735204041004181,
            -0.18155866861343384,
            -0.6307743787765503,
            0.1433386504650116,
            0.21909169852733612,
            -0.9302139282226562,
            0.1752171814441681
          ]
        ],
        "bias": [
          -0.030708523467183113,
          0.07879819720983505
        ]
      }
    }
  },
  "metadata": {
    "createdAtUtc": "2026-05-04T03:27:52.462729+00:00",
    "generator": "poc/cursor-prediction-v16/scripts/run-runtime-ready-distillation-gpu.py",
    "artifactPolicy": "JSON text only; no checkpoints or tensor dumps."
  },
  "parity": {
    "method": "python_reference_runtime_graph_vs_serialized_generated_shape",
    "csharpCompileRun": "not_applicable_shortlist_candidate",
    "maxErrorPx": 0,
    "p99ErrorPx": 0,
    "targetMaxErrorPx": 0.01,
    "passed": true
  }
}
