{
  "schemaVersion": "cursor-prediction-v16-runtime-candidate/1",
  "modelId": "mlp_fsmn_h8_hardtanh_label_q0p03125_lag0p125",
  "family": "tiny_mlp_fsmn",
  "target": "label",
  "cost": {
    "parameterCount": 730,
    "estimatedMacs": 712,
    "branches": 0,
    "activation": "hardtanh",
    "simdFriendly": true
  },
  "inputContract": {
    "refreshBucket": "60Hz",
    "source": "POC13 scalar_features/history normalized with sourceNormalization, then POC16 FSMN projection normalized with featureMean/featureStd.",
    "featureOrder": "scalar[25], seq_last[9], exp_decay_2[9], exp_decay_4[9], exp_decay_8[9], last4_mean[9], last8_mean[9]"
  },
  "sourceNormalization": {
    "scalarFeatureCount": 25,
    "sequenceLength": 16,
    "sequenceFeatureCount": 9,
    "scalarMean": [
      0.2241038978099823,
      1,
      0,
      1,
      0.42226558923721313,
      0.2706699073314667,
      0.15334488451480865,
      0.10437314212322235,
      0.09614657610654831,
      -0.0012199190678074956,
      -0.0009961852338165045,
      -0.0014158292906358838,
      -0.0009754895581863821,
      -0.0010889688273891807,
      -0.0006625740206800401,
      -0.0007272264338098466,
      -0.00047075373004190624,
      -0.0005431881290860474,
      -0.0004196845111437142,
      0.03647180646657944,
      0.01908177137374878,
      0.7416412234306335,
      0.000528307631611824,
      -0.0002555379760451615,
      -0.00019157450878992677
    ],
    "scalarStd": [
      0.04857345297932625,
      9.999999974752427e-7,
      9.999999974752427e-7,
      9.999999974752427e-7,
      0.48080891370773315,
      0.7583799958229065,
      0.3914307653903961,
      0.21464626491069794,
      0.1720551997423172,
      0.10481658577919006,
      0.06355292350053787,
      0.08705241233110428,
      0.049463510513305664,
      0.045999687165021896,
      0.02456449717283249,
      0.024231519550085068,
      0.014597292989492416,
      0.020107068121433258,
      0.011582802049815655,
      0.06907469034194946,
      0.03538140654563904,
      0.39817509055137634,
      0.010321558453142643,
      0.009774189442396164,
      0.00559052312746644
    ],
    "sequenceMean": [
      1,
      0.5178040862083435,
      0.0008092065108940005,
      0.0007010230328887701,
      -0.0003783400752581656,
      -0.0003524457279127091,
      -0.0007039300980977714,
      -0.0006323964917100966,
      0.2496117800474167
    ],
    "sequenceStd": [
      9.999999974752427e-7,
      0.4099465012550354,
      0.05501028150320053,
      0.030694635584950447,
      0.05201470106840134,
      0.0296713188290596,
      0.09753555059432983,
      0.05627205967903137,
      0.3530430495738983
    ],
    "note": "Runtime source features are the POC v13 scalar_features/history values normalized by these arrays before the FSMN projection."
  },
  "runtime": {
    "featureKind": "fsmn",
    "type": "mlp",
    "hidden": 8,
    "activation": "hardtanh",
    "quantizationStep": 0.03125,
    "lagCompensationPx": 0.125,
    "featureMean": [
      -0.000029284930860740133,
      0,
      0,
      0,
      -0.0000024327698611159576,
      0.000002317746975677437,
      0.000005855470135429641,
      -7.639668808678834e-8,
      -9.21763785299845e-7,
      3.0159807096197255e-8,
      1.6043152584188647e-8,
      -2.3934221715649073e-8,
      -2.1996939381097036e-8,
      7.351414410550206e-8,
      4.30754418800916e-8,
      -2.721273872907659e-8,
      -3.5454203128892914e-8,
      -2.7408541214413162e-8,
      1.3250883057480678e-7,
      -0.000016461282939417288,
      -0.000035889715945813805,
      0.0000756810259190388,
      1.5008441156538765e-9,
      6.32173922099355e-8,
      4.770494399508607e-8,
      0,
      -1.102156639099121,
      -0.014710095711052418,
      -0.022838616743683815,
      -0.005045859143137932,
      -0.006756337825208902,
      -0.00529023353010416,
      -0.006464799400418997,
      -0.13551373779773712,
      0,
      -0.9027276635169983,
      -0.010575728490948677,
      -0.016945460811257362,
      -0.004097678232938051,
      -0.003982506692409515,
      -0.00382804567925632,
      -0.003281570738181472,
      -0.10366108268499374,
      0,
      -0.654893159866333,
      -0.00732658663764596,
      -0.011848706752061844,
      -0.0022145137190818787,
      -0.002045060507953167,
      -0.0020136015955358744,
      -0.0016077400650829077,
      -0.0570378340780735,
      0,
      -0.38395795226097107,
      -0.004215747583657503,
      -0.006818557158112526,
      -0.0010627562878653407,
      -0.0009088427759706974,
      -0.0009407881298102438,
      -0.000688533007632941,
      -0.02708986960351467,
      0,
      -0.9268156886100769,
      -0.009883662685751915,
      -0.01640467159450054,
      -0.0035203949082642794,
      -0.0029777816962450743,
      -0.0035204358864575624,
      -0.002295764395967126,
      -0.06631813943386078,
      0,
      -0.6234703660011292,
      -0.006612882949411869,
      -0.010708502493798733,
      -0.0007494561723433435,
      -0.0011815926991403103,
      -0.0004939215141348541,
      -0.0008048687595874071,
      -0.023502618074417114
    ],
    "featureStd": [
      0.9999837875366211,
      0.05000000074505806,
      0.05000000074505806,
      0.05000000074505806,
      0.9999998807907104,
      0.9996525049209595,
      1.0000666379928589,
      0.9999809265136719,
      0.999968945980072,
      1.000032663345337,
      1.0000574588775635,
      1.0000381469726562,
      1.0000869035720825,
      1.0000543594360352,
      1.0001299381256104,
      1.0000407695770264,
      1.0001376867294312,
      1.0000038146972656,
      1.0000648498535156,
      1.0000144243240356,
      1.000056266784668,
      1.00006902217865,
      0.9995421171188354,
      0.9999544620513916,
      0.99994295835495,
      0.05000000074505806,
      0.1832589954137802,
      0.05000000074505806,
      0.05000000074505806,
      1.0688769817352295,
      1.1243948936462402,
      1.0746852159500122,
      1.1294517517089844,
      0.8173587918281555,
      0.05000000074505806,
      0.2179408073425293,
      0.23274673521518707,
      0.23779526352882385,
      0.640028178691864,
      0.6395536065101624,
      0.6420717835426331,
      0.6528753638267517,
      0.3907790184020996,
      0.05000000074505806,
      0.31175318360328674,
      0.41552579402923584,
      0.41939619183540344,
      0.5340860486030579,
      0.526110827922821,
      0.5347579121589661,
      0.531694233417511,
      0.3346315622329712,
      0.05000000074505806,
      0.42677465081214905,
      0.5995476841926575,
      0.601499617099762,
      0.48168495297431946,
      0.4699147343635559,
      0.48209652304649353,
      0.4699242413043976,
      0.3241949677467346,
      0.05000000074505806,
      0.21171244978904724,
      0.2696164548397064,
      0.27488642930984497,
      0.5870794057846069,
      0.569213330745697,
      0.5890822410583496,
      0.5811892151832581,
      0.40262606739997864,
      0.05000000074505806,
      0.3309006989002228,
      0.46458545327186584,
      0.47179660201072693,
      0.5011956095695496,
      0.4851403534412384,
      0.4990905523300171,
      0.4838479161262512,
      0.33992457389831543
    ],
    "targetScale": [
      2.5,
      1.5
    ],
    "layers": {
      "inputHidden": {
        "weights": [
          [
            -0.07108782231807709,
            0.11198407411575317,
            0.09731486439704895,
            -0.10690423101186752,
            -0.12333572655916214,
            -0.06155424565076828,
            0.08482157438993454,
            0.08148162066936493,
            -0.022319374606013298,
            0.0015874101081863046,
            -0.07681667804718018,
            -0.19919581711292267,
            -0.07259232550859451,
            -0.2559831440448761,
            -0.057638827711343765,
            0.05869806930422783,
            0.07457931339740753,
            0.10004959255456924,
            0.02078198455274105,
            -0.1265171617269516,
            0.030007096007466316,
            -0.011841364204883575,
            0.13893845677375793,
            0.0001969913428183645,
            0.0801791250705719,
            -0.029334411025047302,
            -0.019760344177484512,
            -0.014151915907859802,
            -0.06383070349693298,
            0.05015081167221069,
            -0.003382717026397586,
            0.018325595185160637,
            0.0006382159190252423,
            0.03247516602277756,
            -0.06008162349462509,
            -0.056836843490600586,
            0.07865776866674423,
            -0.022885983809828758,
            0.04958917200565338,
            -0.03208043426275253,
            -0.05478358268737793,
            0.03390881046652794,
            0.1088610291481018,
            -0.015003405511379242,
            -0.04794856160879135,
            0.0017106590094044805,
            0.03186019882559776,
            0.014926634728908539,
            0.12336067110300064,
            0.0025281046982854605,
            0.01596972532570362,
            -0.07365570217370987,
            -0.06210434436798096,
            0.0001117724968935363,
            -0.009280549362301826,
            -0.029207726940512657,
            -0.011960373260080814,
            0.04138001427054405,
            -0.013937180861830711,
            0.05036522075533867,
            0.01493113487958908,
            -0.03542166203260422,
            -0.01825018972158432,
            -0.0647350326180458,
            0.007910541258752346,
            0.0037097400054335594,
            -0.06641890853643417,
            0.005835339426994324,
            0.05472317710518837,
            0.08045478165149689,
            -0.06348461657762527,
            -0.1508873701095581,
            0.02608609013259411,
            0.15345098078250885,
            -0.09614835679531097,
            -0.053187575191259384,
            0.04290064796805382,
            0.03185243904590607,
            -0.06015150621533394
          ],
          [
            0.16083642840385437,
            -0.08047131448984146,
            -0.10047373175621033,
            -0.07283741980791092,
            0.3145880103111267,
            -0.20080584287643433,
            -0.045836832374334335,
            0.016336452215909958,
            -0.053155139088630676,
            -0.11042434722185135,
            -0.04318346828222275,
            -0.022488445043563843,
            -0.3490920066833496,
            -0.13764825463294983,
            0.06069643795490265,
            0.04949655011296272,
            -0.10646761208772659,
            0.02365424670279026,
            -0.022658314555883408,
            0.03404773771762848,
            0.07499179989099503,
            0.16479994356632233,
            -0.33363381028175354,
            -0.03273053094744682,
            0.07025457918643951,
            0.04243563115596771,
            0.32458940148353577,
            -0.005337409675121307,
            0.11193779110908508,
            -0.08601265400648117,
            0.04940716549754143,
            -0.06935179978609085,
            -0.05334213003516197,
            -0.21165362000465393,
            0.036633655428886414,
            0.16198186576366425,
            0.029061157256364822,
            -0.03266776725649834,
            -0.002329946495592594,
            -0.12425743788480759,
            0.08733464032411575,
            -0.13781359791755676,
            -0.10328957438468933,
            0.05188140273094177,
            0.08428654819726944,
            0.00470327865332365,
            -0.050418417900800705,
            -0.08576668053865433,
            -0.02854767069220543,
            -0.0818357840180397,
            -0.07584106922149658,
            -0.006699723657220602,
            -0.0104793980717659,
            0.0873851329088211,
            0.0627201646566391,
            -0.0874788835644722,
            -0.13277478516101837,
            0.1705446094274521,
            -0.0742359310388565,
            0.2890641391277313,
            -0.0518014095723629,
            0.022630035877227783,
            0.14123637974262238,
            0.021790653467178345,
            0.04306624457240105,
            -0.005483676213771105,
            0.09472011774778366,
            0.15123936533927917,
            0.03921165689826012,
            -0.08097820729017258,
            -0.03786585479974747,
            -0.05648299679160118,
            -0.1671205461025238,
            0.0827031210064888,
            0.019324393942952156,
            -0.025946855545043945,
            0.04899020865559578,
            0.004374546930193901,
            -0.009262354113161564
          ],
          [
            0.015852730721235275,
            0.011117793619632721,
            0.11024001240730286,
            0.1090131551027298,
            -0.11426212638616562,
            0.2310875952243805,
            0.12455875426530838,
            -0.0064313290640711784,
            0.0030478236731141806,
            0.2996237874031067,
            0.22385051846504211,
            0.5726032853126526,
            0.4411453604698181,
            0.44353121519088745,
            0.06619300693273544,
            0.008021989837288857,
            -0.010280382819473743,
            -0.03916251286864281,
            -0.10408420115709305,
            0.16452747583389282,
            -0.049075134098529816,
            -0.17839846014976501,
            -0.025486359372735023,
            0.005284798797219992,
            -0.030109187588095665,
            0.04607526957988739,
            -0.1791304349899292,
            -0.08048836886882782,
            -0.06752245128154755,
            0.24598726630210876,
            0.05996561050415039,
            0.17516136169433594,
            0.17800159752368927,
            0.0997251346707344,
            0.09333503246307373,
            -0.07933071255683899,
            -0.2006031572818756,
            -0.04652762413024902,
            0.07760785520076752,
            -0.05926177650690079,
            0.04704645648598671,
            -0.0056434255093336105,
            -0.029620284214615822,
            -0.06215934455394745,
            0.07254437357187271,
            -0.08193609863519669,
            0.015778541564941406,
            0.05462959408760071,
            0.03041052259504795,
            -0.06129452586174011,
            0.10950877517461777,
            -0.04371199384331703,
            0.02137577533721924,
            -0.08446374535560608,
            -0.04352685064077377,
            -0.06675343215465546,
            -0.15888507664203644,
            0.4242926836013794,
            -0.16810296475887299,
            0.34618252515792847,
            -0.0396433100104332,
            -0.029888883233070374,
            -0.038485337048769,
            -0.2780417501926422,
            -0.016315825283527374,
            0.06666970252990723,
            -0.029655905440449715,
            -0.1948098987340927,
            -0.17453913390636444,
            0.05057534947991371,
            0.005594678223133087,
            0.07155218720436096,
            -0.0846843346953392,
            0.21403278410434723,
            0.10760706663131714,
            -0.04760194942355156,
            -0.061871487647295,
            0.014853574335575104,
            0.0332997664809227
          ],
          [
            -0.003272612113505602,
            -0.028915978968143463,
            -0.05205892026424408,
            0.11032301187515259,
            0.1904091238975525,
            -0.27089935541152954,
            -0.10991701483726501,
            -0.00019823691400233656,
            -0.07842767238616943,
            -0.37524357438087463,
            -0.21674275398254395,
            -0.9614283442497253,
            -0.7027637362480164,
            -0.6812451481819153,
            -0.339918851852417,
            -0.13350200653076172,
            -0.07578397542238235,
            0.11326271295547485,
            -0.07736990600824356,
            -0.024020131677389145,
            -0.006281855050474405,
            0.22147530317306519,
            0.04908128082752228,
            0.009774547070264816,
            0.008397976867854595,
            0.08261419832706451,
            0.064222052693367,
            0.04040895402431488,
            -0.07877318561077118,
            -0.3379003405570984,
            -0.18001243472099304,
            -0.27056819200515747,
            -0.17868907749652863,
            -0.05896575748920441,
            -0.10084427893161774,
            0.024660684168338776,
            0.27496451139450073,
            0.223154678940773,
            -0.16909529268741608,
            -0.08656959235668182,
            -0.18143320083618164,
            -0.11084512621164322,
            -0.05970574915409088,
            0.09875129163265228,
            0.029587997123599052,
            -0.014099000953137875,
            0.06324557960033417,
            0.05401010438799858,
            -0.06807799637317657,
            0.24331356585025787,
            0.12622442841529846,
            0.003961130976676941,
            -0.02740776538848877,
            -0.006253029219806194,
            -0.02303595095872879,
            0.02314256690442562,
            0.20054028928279877,
            0.3137616515159607,
            0.4242815673351288,
            0.38459062576293945,
            0.030222345143556595,
            -0.04934806376695633,
            0.07545389235019684,
            0.4902743697166443,
            0.0982605367898941,
            -0.023263858631253242,
            0.07126294076442719,
            0.2152336686849594,
            0.12157511711120605,
            -0.07164173573255539,
            0.023921892046928406,
            0.020593738183379173,
            0.18732675909996033,
            0.19511646032333374,
            -0.12644103169441223,
            -0.09719445556402206,
            0.11423797905445099,
            0.12207642197608948,
            0.03495786711573601
          ],
          [
            -0.15854717791080475,
            0.003764357417821884,
            -0.04989463835954666,
            -0.06830553710460663,
            -0.31066402792930603,
            0.4235139787197113,
            0.14896076917648315,
            -0.003656266489997506,
            0.06504970043897629,
            0.3557199239730835,
            0.23116585612297058,
            0.8397092819213867,
            0.7044223546981812,
            0.2739792466163635,
            0.1547006070613861,
            -0.11150756478309631,
            0.004155201371759176,
            -0.10114364326000214,
            -0.014485043473541737,
            -0.09077425301074982,
            -0.07386720925569534,
            -0.27717486023902893,
            -0.06761819869279861,
            -0.051163993775844574,
            0.016812413930892944,
            -0.1118522435426712,
            -0.2795022428035736,
            0.07250262796878815,
            0.011436901986598969,
            0.4413137435913086,
            0.17633026838302612,
            0.3391404449939728,
            0.28101423382759094,
            0.06296762079000473,
            0.10091269016265869,
            -0.0686175525188446,
            -0.1357862800359726,
            -0.10828652232885361,
            0.27859240770339966,
            0.2052580565214157,
            0.26705706119537354,
            0.20721185207366943,
            0.11445514857769012,
            0.10552072525024414,
            -0.06436963379383087,
            -0.15453995764255524,
            -0.060134537518024445,
            0.03893234208226204,
            -0.013338924385607243,
            0.17941011488437653,
            0.08279699087142944,
            0.06394856423139572,
            -0.026196904480457306,
            0.03260031342506409,
            -0.1054011806845665,
            -0.02580641396343708,
            0.14230549335479736,
            -0.21282759308815002,
            0.3734636604785919,
            -0.226557657122612,
            0.04503585770726204,
            0.08078332245349884,
            -0.03394554555416107,
            -0.07864721119403839,
            -0.010166294872760773,
            -0.11823288351297379,
            -0.10828500241041183,
            -0.1313815712928772,
            0.02201034501194954,
            0.03682314604520798,
            0.08680686354637146,
            -0.11564235389232635,
            0.02032141014933586,
            -0.1752268373966217,
            0.05745439976453781,
            0.008417579345405102,
            -0.009883123449981213,
            -0.0508488230407238,
            -0.04232090711593628
          ],
          [
            0.12493394315242767,
            -0.05865241959691048,
            0.0750984400510788,
            -0.07137289643287659,
            0.32486140727996826,
            -0.13317608833312988,
            0.18794946372509003,
            0.0516163595020771,
            -0.08854172378778458,
            -0.09262692183256149,
            -0.04123922064900398,
            -0.33476805686950684,
            -0.056351225823163986,
            -0.02843238227069378,
            0.001366221345961094,
            -0.05943102017045021,
            0.09033580869436264,
            0.11211653053760529,
            -0.03670608624815941,
            0.06893205642700195,
            0.1598186045885086,
            0.12409194558858871,
            0.34402087330818176,
            0.13322043418884277,
            0.051368582993745804,
            0.021570071578025818,
            0.2975146174430847,
            -0.07987228780984879,
            -0.10477711260318756,
            -0.0028234687633812428,
            -0.08151998370885849,
            -0.1077093556523323,
            0.03347615525126457,
            -0.09646393358707428,
            -0.08459586650133133,
            0.11606846004724503,
            -0.11403179913759232,
            -0.015732942149043083,
            -0.08207932859659195,
            0.08170357346534729,
            -0.034252963960170746,
            0.10312041640281677,
            -0.0682634711265564,
            -0.07504205405712128,
            -0.02111075073480606,
            0.12074130028486252,
            -0.098698191344738,
            -0.11606620997190475,
            0.08053373545408249,
            0.1991637498140335,
            -0.1196836307644844,
            -0.11348234862089157,
            0.08930326998233795,
            0.06802881509065628,
            0.11073154211044312,
            -0.05495874211192131,
            0.07983369380235672,
            -0.08193454146385193,
            0.05685035511851311,
            -0.23658664524555206,
            -0.07493134588003159,
            0.10272523760795593,
            0.04518797993659973,
            -0.043574169278144836,
            -0.041960932314395905,
            -0.03385661169886589,
            0.1300516128540039,
            0.13989096879959106,
            -0.1270086169242859,
            -0.028824888169765472,
            -0.0036841295659542084,
            0.07032358646392822,
            0.007657898124307394,
            0.01968454010784626,
            -0.002628880785778165,
            0.006937110796570778,
            0.11392117291688919,
            -0.07727887481451035,
            0.04664173349738121
          ],
          [
            0.03598681092262268,
            -0.0019512157887220383,
            -0.00016778381541371346,
            -0.026879727840423584,
            0.14376984536647797,
            -0.0778336152434349,
            0.18252359330654144,
            0.0272084791213274,
            -0.09921746701002121,
            -0.0007374205742962658,
            0.09704501926898956,
            0.11452818661928177,
            -0.017008904367685318,
            -0.018047723919153214,
            0.02327062375843525,
            0.030466271564364433,
            0.09610115736722946,
            -0.07975531369447708,
            0.07433222234249115,
            0.09647638350725174,
            0.14632199704647064,
            0.1557319015264511,
            0.19260351359844208,
            -0.09459534287452698,
            -0.05316993221640587,
            0.04939804971218109,
            0.27957186102867126,
            -0.006373748183250427,
            -0.05307463929057121,
            -0.19456419348716736,
            -0.001111485413275659,
            0.029332255944609642,
            -0.09445739537477493,
            -0.14989134669303894,
            -0.024397410452365875,
            0.18333105742931366,
            0.0810072124004364,
            -0.0518338643014431,
            -0.046415071934461594,
            0.05155964195728302,
            0.033907778561115265,
            -0.13818040490150452,
            -0.13511815667152405,
            0.03365045785903931,
            0.0818842202425003,
            0.0591459684073925,
            -0.06860534101724625,
            -0.04981907457113266,
            -0.005735618062317371,
            -0.007965955883264542,
            -0.10093791782855988,
            -0.1289294958114624,
            0.06839412450790405,
            0.07735910266637802,
            0.07970494776964188,
            -0.012194342911243439,
            0.018879298120737076,
            0.02638913318514824,
            -0.06822769343852997,
            -0.027243856340646744,
            0.007297100964933634,
            0.002708122134208679,
            0.07677388936281204,
            -0.07331689447164536,
            -0.010190715081989765,
            -0.056469254195690155,
            0.069544218480587,
            -0.045507628470659256,
            -0.07360386103391647,
            -0.027967222034931183,
            0.04152365028858185,
            -0.04009483382105827,
            -0.10727542638778687,
            -0.042004819959402084,
            0.16743279993534088,
            -0.02089553326368332,
            0.02151595614850521,
            -0.09184036403894424,
            0.005883894395083189
          ],
          [
            -0.0011836329940706491,
            0.01436568796634674,
            -0.043604470789432526,
            -0.035639435052871704,
            0.11118769645690918,
            0.07407063245773315,
            -0.022777166217565536,
            -0.03220238909125328,
            0.0249642301350832,
            0.01467723585665226,
            -0.04964500665664673,
            0.09815617650747299,
            -0.13477273285388947,
            0.1890687346458435,
            0.016675375401973724,
            -0.0914832353591919,
            0.0012894230894744396,
            -0.012001007795333862,
            0.15361502766609192,
            0.08848023414611816,
            -0.0588354766368866,
            0.0014311206759884953,
            -0.02782408520579338,
            0.008681640960276127,
            -0.020703129470348358,
            0.10760493576526642,
            0.1151779294013977,
            0.018740952014923096,
            -0.008972294628620148,
            -0.08693394064903259,
            0.10043748468160629,
            0.013408089056611061,
            0.017610600218176842,
            0.0074370140209794044,
            -0.06928665935993195,
            -0.06063765659928322,
            -0.023054996505379677,
            -0.13580501079559326,
            -0.04992767795920372,
            -0.05273173376917839,
            0.030214859172701836,
            0.0008233618573285639,
            0.032823655754327774,
            -0.09258554875850677,
            -0.05052866041660309,
            -0.05846460163593292,
            -0.06907987594604492,
            -0.08184914290904999,
            -0.008181802928447723,
            0.024067146703600883,
            -0.08983553200960159,
            0.05591646209359169,
            -0.0234566330909729,
            -0.04708069935441017,
            0.03883327543735504,
            0.1671168953180313,
            -0.05623798817396164,
            -0.09830350428819656,
            -0.023017534986138344,
            -0.008889766409993172,
            0.06997048109769821,
            0.07814431190490723,
            -0.04512516409158707,
            -0.13356511294841766,
            -0.05270741879940033,
            -0.04610680416226387,
            0.07252786308526993,
            0.0324343740940094,
            0.1043897420167923,
            -0.04996775835752487,
            -0.0767374038696289,
            0.11739844083786011,
            -0.08577405661344528,
            -0.00016112015873659402,
            0.033797599375247955,
            0.05089518427848816,
            -0.0023408224806189537,
            -0.011709824204444885,
            0.03626839444041252
          ]
        ],
        "bias": [
          -0.06929830461740494,
          0.09504066407680511,
          -0.08961610496044159,
          0.07009139657020569,
          -0.3943828344345093,
          0.1906355917453766,
          0.05878560617566109,
          -0.05627705529332161
        ]
      },
      "hiddenHidden": {
        "weights": [
          [
            -0.055117812007665634,
            -0.362558513879776,
            -0.33874741196632385,
            -0.19048435986042023,
            -0.021796079352498055,
            -0.384187787771225,
            -0.025970419868826866,
            -0.2737213373184204
          ],
          [
            -0.7921741604804993,
            -0.5845834612846375,
            0.057696230709552765,
            -0.49318715929985046,
            0.6134218573570251,
            -0.2654140591621399,
            0.18708045780658722,
            -0.0394430086016655
          ],
          [
            0.3559705317020416,
            -0.05850391089916229,
            -0.901794970035553,
            0.37712031602859497,
            -0.3024219870567322,
            0.8508042693138123,
            -0.08013860136270523,
            -0.30699512362480164
          ],
          [
            0.09927467256784439,
            -0.01589437946677208,
            -0.07812432199716568,
            0.013309894129633904,
            0.2062760442495346,
            0.519902765750885,
            -0.30990734696388245,
            0.0444532111287117
          ],
          [
            -0.34472543001174927,
            -0.30048826336860657,
            -0.12562274932861328,
            -0.04942946508526802,
            -0.15912191569805145,
            -0.09481368213891983,
            -0.030309518799185753,
            -0.3757518231868744
          ],
          [
            -0.001580570125952363,
            0.17016667127609253,
            -0.020066292956471443,
            0.017442142590880394,
            0.5498210787773132,
            0.2836875915527344,
            -0.14110884070396423,
            -0.0852232500910759
          ],
          [
            -0.30579790472984314,
            0.2922910153865814,
            0.07987489551305771,
            0.04614059254527092,
            0.18929685652256012,
            0.6067994832992554,
            -0.22076120972633362,
            -0.15914349257946014
          ],
          [
            -0.19793516397476196,
            0.3889240324497223,
            0.008515734225511551,
            -0.5156885981559753,
            -0.4499307870864868,
            0.21998293697834015,
            0.47239649295806885,
            -0.17432205379009247
          ]
        ],
        "bias": [
          -0.24545451998710632,
          -0.2586033344268799,
          0.24669082462787628,
          -0.08106469362974167,
          -0.18551403284072876,
          0.23138806223869324,
          -0.06174534559249878,
          -0.009312332607805729
        ]
      },
      "hiddenOutput": {
        "weights": [
          [
            -0.30376628041267395,
            -0.02253209426999092,
            0.29732179641723633,
            0.33444273471832275,
            -0.16996484994888306,
            0.24898113310337067,
            0.4982489347457886,
            -0.7948119640350342
          ],
          [
            -0.6599023938179016,
            -0.49161311984062195,
            -0.403190940618515,
            -0.00744834216311574,
            -0.6991327404975891,
            -0.09608741849660873,
            -0.34159547090530396,
            -0.44165027141571045
          ]
        ],
        "bias": [
          -0.11565299332141876,
          -0.23767051100730896
        ]
      }
    }
  },
  "metadata": {
    "createdAtUtc": "2026-05-04T03:27:52.797455+00:00",
    "generator": "poc/cursor-prediction-v16/scripts/run-runtime-ready-distillation-gpu.py",
    "artifactPolicy": "JSON text only; no checkpoints or tensor dumps."
  },
  "parity": {
    "method": "python_reference_runtime_graph_vs_serialized_generated_shape",
    "csharpCompileRun": "not_applicable_shortlist_candidate",
    "maxErrorPx": 0,
    "p99ErrorPx": 0,
    "targetMaxErrorPx": 0.01,
    "passed": true
  }
}
