{
  "schemaVersion": "cursor-prediction-v16-runtime-candidate/1",
  "modelId": "mlp_fsmn_h8_hardtanh_teacher_q0p0625_lag0p5",
  "family": "tiny_mlp_fsmn",
  "target": "teacher",
  "cost": {
    "parameterCount": 730,
    "estimatedMacs": 712,
    "branches": 0,
    "activation": "hardtanh",
    "simdFriendly": true
  },
  "inputContract": {
    "refreshBucket": "60Hz",
    "source": "POC13 scalar_features/history normalized with sourceNormalization, then POC16 FSMN projection normalized with featureMean/featureStd.",
    "featureOrder": "scalar[25], seq_last[9], exp_decay_2[9], exp_decay_4[9], exp_decay_8[9], last4_mean[9], last8_mean[9]"
  },
  "sourceNormalization": {
    "scalarFeatureCount": 25,
    "sequenceLength": 16,
    "sequenceFeatureCount": 9,
    "scalarMean": [
      0.2241038978099823,
      1,
      0,
      1,
      0.42226558923721313,
      0.2706699073314667,
      0.15334488451480865,
      0.10437314212322235,
      0.09614657610654831,
      -0.0012199190678074956,
      -0.0009961852338165045,
      -0.0014158292906358838,
      -0.0009754895581863821,
      -0.0010889688273891807,
      -0.0006625740206800401,
      -0.0007272264338098466,
      -0.00047075373004190624,
      -0.0005431881290860474,
      -0.0004196845111437142,
      0.03647180646657944,
      0.01908177137374878,
      0.7416412234306335,
      0.000528307631611824,
      -0.0002555379760451615,
      -0.00019157450878992677
    ],
    "scalarStd": [
      0.04857345297932625,
      9.999999974752427e-7,
      9.999999974752427e-7,
      9.999999974752427e-7,
      0.48080891370773315,
      0.7583799958229065,
      0.3914307653903961,
      0.21464626491069794,
      0.1720551997423172,
      0.10481658577919006,
      0.06355292350053787,
      0.08705241233110428,
      0.049463510513305664,
      0.045999687165021896,
      0.02456449717283249,
      0.024231519550085068,
      0.014597292989492416,
      0.020107068121433258,
      0.011582802049815655,
      0.06907469034194946,
      0.03538140654563904,
      0.39817509055137634,
      0.010321558453142643,
      0.009774189442396164,
      0.00559052312746644
    ],
    "sequenceMean": [
      1,
      0.5178040862083435,
      0.0008092065108940005,
      0.0007010230328887701,
      -0.0003783400752581656,
      -0.0003524457279127091,
      -0.0007039300980977714,
      -0.0006323964917100966,
      0.2496117800474167
    ],
    "sequenceStd": [
      9.999999974752427e-7,
      0.4099465012550354,
      0.05501028150320053,
      0.030694635584950447,
      0.05201470106840134,
      0.0296713188290596,
      0.09753555059432983,
      0.05627205967903137,
      0.3530430495738983
    ],
    "note": "Runtime source features are the POC v13 scalar_features/history values normalized by these arrays before the FSMN projection."
  },
  "runtime": {
    "featureKind": "fsmn",
    "type": "mlp",
    "hidden": 8,
    "activation": "hardtanh",
    "quantizationStep": 0.0625,
    "lagCompensationPx": 0.5,
    "featureMean": [
      -0.000029284930860740133,
      0,
      0,
      0,
      -0.0000024327698611159576,
      0.000002317746975677437,
      0.000005855470135429641,
      -7.639668808678834e-8,
      -9.21763785299845e-7,
      3.0159807096197255e-8,
      1.6043152584188647e-8,
      -2.3934221715649073e-8,
      -2.1996939381097036e-8,
      7.351414410550206e-8,
      4.30754418800916e-8,
      -2.721273872907659e-8,
      -3.5454203128892914e-8,
      -2.7408541214413162e-8,
      1.3250883057480678e-7,
      -0.000016461282939417288,
      -0.000035889715945813805,
      0.0000756810259190388,
      1.5008441156538765e-9,
      6.32173922099355e-8,
      4.770494399508607e-8,
      0,
      -1.102156639099121,
      -0.014710095711052418,
      -0.022838616743683815,
      -0.005045859143137932,
      -0.006756337825208902,
      -0.00529023353010416,
      -0.006464799400418997,
      -0.13551373779773712,
      0,
      -0.9027276635169983,
      -0.010575728490948677,
      -0.016945460811257362,
      -0.004097678232938051,
      -0.003982506692409515,
      -0.00382804567925632,
      -0.003281570738181472,
      -0.10366108268499374,
      0,
      -0.654893159866333,
      -0.00732658663764596,
      -0.011848706752061844,
      -0.0022145137190818787,
      -0.002045060507953167,
      -0.0020136015955358744,
      -0.0016077400650829077,
      -0.0570378340780735,
      0,
      -0.38395795226097107,
      -0.004215747583657503,
      -0.006818557158112526,
      -0.0010627562878653407,
      -0.0009088427759706974,
      -0.0009407881298102438,
      -0.000688533007632941,
      -0.02708986960351467,
      0,
      -0.9268156886100769,
      -0.009883662685751915,
      -0.01640467159450054,
      -0.0035203949082642794,
      -0.0029777816962450743,
      -0.0035204358864575624,
      -0.002295764395967126,
      -0.06631813943386078,
      0,
      -0.6234703660011292,
      -0.006612882949411869,
      -0.010708502493798733,
      -0.0007494561723433435,
      -0.0011815926991403103,
      -0.0004939215141348541,
      -0.0008048687595874071,
      -0.023502618074417114
    ],
    "featureStd": [
      0.9999837875366211,
      0.05000000074505806,
      0.05000000074505806,
      0.05000000074505806,
      0.9999998807907104,
      0.9996525049209595,
      1.0000666379928589,
      0.9999809265136719,
      0.999968945980072,
      1.000032663345337,
      1.0000574588775635,
      1.0000381469726562,
      1.0000869035720825,
      1.0000543594360352,
      1.0001299381256104,
      1.0000407695770264,
      1.0001376867294312,
      1.0000038146972656,
      1.0000648498535156,
      1.0000144243240356,
      1.000056266784668,
      1.00006902217865,
      0.9995421171188354,
      0.9999544620513916,
      0.99994295835495,
      0.05000000074505806,
      0.1832589954137802,
      0.05000000074505806,
      0.05000000074505806,
      1.0688769817352295,
      1.1243948936462402,
      1.0746852159500122,
      1.1294517517089844,
      0.8173587918281555,
      0.05000000074505806,
      0.2179408073425293,
      0.23274673521518707,
      0.23779526352882385,
      0.640028178691864,
      0.6395536065101624,
      0.6420717835426331,
      0.6528753638267517,
      0.3907790184020996,
      0.05000000074505806,
      0.31175318360328674,
      0.41552579402923584,
      0.41939619183540344,
      0.5340860486030579,
      0.526110827922821,
      0.5347579121589661,
      0.531694233417511,
      0.3346315622329712,
      0.05000000074505806,
      0.42677465081214905,
      0.5995476841926575,
      0.601499617099762,
      0.48168495297431946,
      0.4699147343635559,
      0.48209652304649353,
      0.4699242413043976,
      0.3241949677467346,
      0.05000000074505806,
      0.21171244978904724,
      0.2696164548397064,
      0.27488642930984497,
      0.5870794057846069,
      0.569213330745697,
      0.5890822410583496,
      0.5811892151832581,
      0.40262606739997864,
      0.05000000074505806,
      0.3309006989002228,
      0.46458545327186584,
      0.47179660201072693,
      0.5011956095695496,
      0.4851403534412384,
      0.4990905523300171,
      0.4838479161262512,
      0.33992457389831543
    ],
    "targetScale": [
      1.9714257717132568,
      1.0825635194778442
    ],
    "layers": {
      "inputHidden": {
        "weights": [
          [
            -0.09453831613063812,
            -0.015693150460720062,
            -0.08166124671697617,
            0.06557174026966095,
            -0.5349507331848145,
            0.09720403701066971,
            0.07752785831689835,
            -0.017814157530665398,
            -0.0014164034510031343,
            0.12270767986774445,
            -0.07239892333745956,
            0.6226816773414612,
            0.1006850004196167,
            0.4400748610496521,
            -0.005431978031992912,
            0.0955488309264183,
            0.06382361799478531,
            -0.09485062211751938,
            0.020824868232011795,
            -0.09204612672328949,
            -0.08282918483018875,
            -0.15418477356433868,
            -0.31983086466789246,
            -0.20863649249076843,
            0.054166171699762344,
            0.05610494315624237,
            -0.49202024936676025,
            -0.03549576550722122,
            0.07523030042648315,
            -0.11759760975837708,
            0.06921041756868362,
            -0.041340019553899765,
            0.08051032572984695,
            -0.028187181800603867,
            -0.03898429870605469,
            -0.25160929560661316,
            0.03914249688386917,
            0.09172015637159348,
            0.1016329824924469,
            -0.08957425504922867,
            0.04238414391875267,
            -0.07756897062063217,
            0.34012576937675476,
            -0.07691369950771332,
            -0.13161808252334595,
            -0.06263855844736099,
            0.10534357279539108,
            -0.039287976920604706,
            -0.002833720063790679,
            -0.08238230645656586,
            0.0778215080499649,
            -0.0017720540054142475,
            0.09199178218841553,
            -0.0926496833562851,
            0.03623640909790993,
            -0.07408106327056885,
            -0.11711961030960083,
            0.0038686159532517195,
            -0.23330526053905487,
            0.19304797053337097,
            0.06940430402755737,
            0.07608683407306671,
            -0.01936393976211548,
            -0.15772925317287445,
            0.05085621029138565,
            0.004204815719276667,
            -0.023420630022883415,
            -0.19718126952648163,
            0.014321662485599518,
            0.13206246495246887,
            0.05850675702095032,
            -0.08061178773641586,
            -0.14384283125400543,
            0.07424172759056091,
            0.13086235523223877,
            -0.10714767128229141,
            -0.06608599424362183,
            -0.006391695234924555,
            -0.12794804573059082
          ],
          [
            -0.091309554874897,
            -0.04519107937812805,
            0.024742960929870605,
            -0.06443330645561218,
            -0.30196258425712585,
            0.00721459137275815,
            -0.02089281938970089,
            0.10236700624227524,
            -0.0814446210861206,
            -0.0930815264582634,
            0.03200749680399895,
            -0.45420145988464355,
            -0.17045670747756958,
            -0.16785918176174164,
            0.03978641703724861,
            0.01712014339864254,
            0.025930486619472504,
            0.04189983010292053,
            0.12183234840631485,
            -0.028600847348570824,
            -0.10070660710334778,
            -0.06680341064929962,
            -0.27098360657691956,
            0.15873287618160248,
            0.005761257838457823,
            -0.02083967626094818,
            -0.47546276450157166,
            -0.010457135736942291,
            0.08654774725437164,
            -0.03607696294784546,
            -0.0367918461561203,
            0.12157602608203888,
            0.0035113252233713865,
            0.023164507001638412,
            0.017257437109947205,
            -0.2011997252702713,
            0.051860496401786804,
            -0.060932502150535583,
            0.06125504896044731,
            -0.08942769467830658,
            0.0763995498418808,
            0.03615068271756172,
            0.34107041358947754,
            -0.1108931303024292,
            -0.0589117556810379,
            0.011896206997334957,
            0.016680290922522545,
            -0.010468819178640842,
            -0.046635959297418594,
            -0.013280938379466534,
            0.11497422307729721,
            0.10598994791507721,
            0.06549966335296631,
            -0.14153435826301575,
            -0.000769633159507066,
            0.10577502101659775,
            -0.03770974278450012,
            0.06043011695146561,
            0.08342361450195312,
            0.0326429046690464,
            -0.11905626207590103,
            -0.10046263039112091,
            0.00028727803146466613,
            0.20200245082378387,
            -0.06931950896978378,
            -0.07071051001548767,
            0.10622019320726395,
            0.08593439310789108,
            0.008076095953583717,
            0.06081860885024071,
            -0.09342727065086365,
            -0.08005163073539734,
            0.11405989527702332,
            0.0885893851518631,
            -0.022544370964169502,
            0.024980349466204643,
            0.06789633631706238,
            -0.07429231703281403,
            -0.07760493457317352
          ],
          [
            -0.15681490302085876,
            -0.024286679923534393,
            0.08422510325908661,
            0.014338895678520203,
            -0.42845043540000916,
            -0.0696864128112793,
            -0.1545228362083435,
            0.024332286790013313,
            0.11137006431818008,
            0.10871224105358124,
            -0.00660299276933074,
            0.03009854257106781,
            0.2208341807126999,
            0.0708930715918541,
            0.000664094986859709,
            0.05343329533934593,
            -0.01127356756478548,
            -0.013821582309901714,
            -0.021638156846165657,
            0.07230780273675919,
            -0.19039036333560944,
            -0.16471147537231445,
            -0.18881380558013916,
            0.0005342087242752314,
            -0.12346161156892776,
            0.0369306355714798,
            -0.27285492420196533,
            -0.05525599420070648,
            0.06590127944946289,
            -0.04263303428888321,
            -0.1331503540277481,
            0.003402946749702096,
            0.07336413115262985,
            0.0719337984919548,
            0.025586619973182678,
            -0.04818005487322807,
            0.08337537944316864,
            -0.03473406285047531,
            -0.15864065289497375,
            0.12345828860998154,
            -0.05059652775526047,
            0.07184048742055893,
            0.23090508580207825,
            -0.017788857221603394,
            -0.038938093930482864,
            0.008862842805683613,
            -0.17150141298770905,
            0.043139826506376266,
            0.08267265558242798,
            -0.016308046877384186,
            -0.01615932025015354,
            0.09479774534702301,
            0.03198865056037903,
            -0.00569354509934783,
            0.00985108595341444,
            -0.009799900464713573,
            0.06613814830780029,
            -0.12138422578573227,
            0.04753899574279785,
            -0.21819822490215302,
            -0.03307729214429855,
            0.09543514251708984,
            0.012466952204704285,
            0.05763698369264603,
            0.12148109823465347,
            0.02216319367289543,
            -0.0714491456747055,
            -0.019958145916461945,
            -0.09653022140264511,
            0.03567901626229286,
            -0.1119222566485405,
            -0.11852101236581802,
            -0.032952744513750076,
            -0.08707093447446823,
            -0.01352878287434578,
            -0.007150045596063137,
            -0.00838803593069315,
            0.013417810201644897,
            -0.05112876743078232
          ],
          [
            -0.05412773787975311,
            0.06300647556781769,
            -0.009515047073364258,
            -0.024581946432590485,
            -0.018490057438611984,
            -0.29962271451950073,
            -0.1310858130455017,
            -0.1892174929380417,
            0.15170833468437195,
            -0.026570651680231094,
            0.0689738541841507,
            0.33018988370895386,
            -0.05922804772853851,
            0.42118069529533386,
            -0.05270792916417122,
            0.07340576499700546,
            -0.0782957524061203,
            -0.11868176609277725,
            0.1132659912109375,
            0.13217715919017792,
            0.029124407097697258,
            -0.46144744753837585,
            0.23490740358829498,
            -0.17474684119224548,
            0.010164335370063782,
            0.10553701221942902,
            -0.13517405092716217,
            -0.028844282031059265,
            -0.0031858086585998535,
            -0.09206292033195496,
            0.11088348180055618,
            0.09092573076486588,
            0.060648705810308456,
            0.09361744672060013,
            -0.0740470439195633,
            -0.12453757226467133,
            -0.11377423256635666,
            0.0653134435415268,
            0.09876199811697006,
            0.02397199533879757,
            0.031433604657649994,
            -0.1261139214038849,
            0.14233675599098206,
            0.06538979709148407,
            0.015807868912816048,
            -0.07832225412130356,
            0.049223076552152634,
            0.044975727796554565,
            -0.06882564723491669,
            -0.1399204283952713,
            -0.01988285779953003,
            0.1166248694062233,
            -0.01641283929347992,
            -0.06117004156112671,
            -0.011043442413210869,
            -0.0540057048201561,
            0.010452156886458397,
            0.039021652191877365,
            -0.28181079030036926,
            0.17269256711006165,
            0.017637448385357857,
            0.09880721569061279,
            0.014369597658514977,
            -0.24643084406852722,
            0.12160986661911011,
            0.026006164029240608,
            0.05582282692193985,
            -0.18295367062091827,
            0.07557860016822815,
            -0.03776552900671959,
            0.061352163553237915,
            0.11329001188278198,
            -0.13196885585784912,
            -0.020853793248534203,
            0.020302416756749153,
            -0.09803757071495056,
            0.01927912048995495,
            0.049664247781038284,
            -0.025832708925008774
          ],
          [
            0.11409113556146622,
            -0.017098091542720795,
            0.03374755382537842,
            -0.09347733855247498,
            0.25345173478126526,
            0.0028261737897992134,
            -0.04845535382628441,
            0.02947263978421688,
            -0.021165529265999794,
            -0.01079421304166317,
            0.28790009021759033,
            0.1835336834192276,
            1.0576921701431274,
            0.05842643976211548,
            0.47108668088912964,
            0.009740293957293034,
            0.0031971149146556854,
            -0.080668143928051,
            0.06057262793183327,
            -0.054790496826171875,
            0.023395538330078125,
            0.2374979853630066,
            -0.4754580855369568,
            0.03785895183682442,
            -0.10421662777662277,
            0.0973895788192749,
            0.17918241024017334,
            -0.09427312016487122,
            0.03416846692562103,
            0.06415349245071411,
            0.2572416365146637,
            -0.022982710972428322,
            0.16767381131649017,
            -0.05445301532745361,
            -0.01450396329164505,
            0.039974771440029144,
            0.10701938718557358,
            -0.13541994988918304,
            -0.056832801550626755,
            -0.07337713986635208,
            -0.03380053862929344,
            0.04800375550985336,
            -0.18155933916568756,
            0.0885997861623764,
            0.048505350947380066,
            0.022249216213822365,
            -0.0328412689268589,
            0.027151644229888916,
            -0.03372635692358017,
            -0.004390636458992958,
            -0.05555276200175285,
            -0.07255984842777252,
            -0.10906538367271423,
            0.21625006198883057,
            -0.013065178878605366,
            -0.06073332205414772,
            0.09723569452762604,
            0.0020837632473558187,
            0.05181635171175003,
            -0.20000091195106506,
            -0.03490825369954109,
            0.022551491856575012,
            -0.0792076513171196,
            -0.1118699163198471,
            -0.16519896686077118,
            -0.0364815853536129,
            -0.07556252181529999,
            -0.0823344737291336,
            -0.199140265583992,
            0.02598573826253414,
            0.06625163555145264,
            0.174896240234375,
            0.064362533390522,
            -0.10007450729608536,
            -0.07717984914779663,
            -0.00911638606339693,
            0.04677094519138336,
            -0.12277132272720337,
            0.0005392190651036799
          ],
          [
            0.10088665038347244,
            -0.055792465806007385,
            -0.09688183665275574,
            0.07853245735168457,
            0.11879521608352661,
            0.11538723111152649,
            0.05428662523627281,
            -0.033986762166023254,
            -0.13377372920513153,
            0.06488779187202454,
            -0.03486238047480583,
            -0.22814880311489105,
            -0.08844511210918427,
            -0.24374878406524658,
            0.05469108000397682,
            0.12295868247747421,
            -0.016010938212275505,
            0.03960724547505379,
            -0.0252517219632864,
            0.024945363402366638,
            0.18863701820373535,
            0.46432024240493774,
            -0.04151538759469986,
            0.0003403048904146999,
            -0.01194607000797987,
            0.006562434136867523,
            0.1266414374113083,
            -0.047187015414237976,
            -0.04279864579439163,
            -0.09682101011276245,
            -0.07950741797685623,
            0.13707344233989716,
            0.07382626086473465,
            -0.050045423209667206,
            0.11025723814964294,
            0.03801586851477623,
            0.13595996797084808,
            0.04797572270035744,
            -0.12121818959712982,
            -0.08478167653083801,
            -0.029059983789920807,
            -0.06478021293878555,
            -0.249417245388031,
            0.05202721059322357,
            0.1070137694478035,
            0.004164158366620541,
            -0.05316869914531708,
            -0.01923692785203457,
            0.10542949289083481,
            -0.18693844974040985,
            -0.019572654739022255,
            -0.15100868046283722,
            0.07967410981655121,
            0.0004092927847523242,
            0.048669956624507904,
            -0.04819023609161377,
            -0.23451067507266998,
            0.19299058616161346,
            -0.165657639503479,
            0.03295501694083214,
            0.113621287047863,
            -0.07974866032600403,
            -0.10979235172271729,
            -0.12294953316450119,
            -0.1016678661108017,
            0.08908174186944962,
            -0.09656713902950287,
            0.008031141944229603,
            0.040140025317668915,
            0.09934981912374496,
            -0.03087165206670761,
            -0.033174779266119,
            0.017948945984244347,
            0.11216382682323456,
            0.12751922011375427,
            0.050792135298252106,
            -0.038722727447748184,
            -0.09842897951602936,
            0.03306940943002701
          ],
          [
            -0.022825924679636955,
            -0.043870650231838226,
            -0.09428063035011292,
            0.053867071866989136,
            -0.29155099391937256,
            0.007560550235211849,
            0.14312931895256042,
            -0.06929662823677063,
            -0.020879171788692474,
            -0.08342183381319046,
            -0.08723055571317673,
            -0.18331016600131989,
            -0.8701132535934448,
            -0.06876035034656525,
            -0.1210116446018219,
            0.03548509255051613,
            -0.00521587859839201,
            0.021656056866049767,
            0.19527535140514374,
            -0.05096382647752762,
            0.048049524426460266,
            -0.16915856301784515,
            0.5046563148498535,
            -0.033650174736976624,
            0.06839016079902649,
            -0.1072850376367569,
            -0.1589636355638504,
            0.06498885154724121,
            0.06385807693004608,
            -0.04410804808139801,
            -0.23088163137435913,
            0.08976143598556519,
            -0.09698349237442017,
            0.011393042281270027,
            -0.009475775063037872,
            -0.16005879640579224,
            0.02077953889966011,
            -0.03961702808737755,
            0.08564967662096024,
            -0.017631912603974342,
            0.060483381152153015,
            0.0668737143278122,
            0.13026206195354462,
            -0.04341180622577667,
            -0.1022874116897583,
            0.032908856868743896,
            -0.0803159549832344,
            0.049633074551820755,
            -0.06851837784051895,
            -0.040027108043432236,
            -0.19152632355690002,
            0.029949435964226723,
            0.10234242677688599,
            -0.025722375139594078,
            0.0025986048858612776,
            -0.01565493457019329,
            0.021571459248661995,
            -0.6507773995399475,
            -0.08845602720975876,
            -0.7778196930885315,
            -0.12685906887054443,
            0.037681713700294495,
            0.09823060035705566,
            -0.03880643472075462,
            0.19364146888256073,
            0.012842841446399689,
            0.0928502008318901,
            0.07030156999826431,
            0.06173970177769661,
            0.005329062230885029,
            -0.06442594528198242,
            -0.03266243264079094,
            0.043812286108732224,
            -0.6172258853912354,
            0.055002253502607346,
            0.09710491448640823,
            0.0049865636974573135,
            0.016358990222215652,
            -0.023692717775702477
          ],
          [
            -0.1692715436220169,
            0.0093604177236557,
            0.004645168781280518,
            -0.018291473388671875,
            -0.29450085759162903,
            -0.04356616362929344,
            -0.0950436219573021,
            0.1537400484085083,
            0.10546132922172546,
            -0.02070266380906105,
            0.09106435626745224,
            -0.07220873236656189,
            -0.02379108965396881,
            -0.03036431223154068,
            0.030439501628279686,
            0.08529789745807648,
            0.04895414412021637,
            0.04762069508433342,
            0.041105348616838455,
            -0.14268361032009125,
            -0.23948343098163605,
            -0.3153728246688843,
            -0.07371383905410767,
            0.030773472040891647,
            -0.047240544110536575,
            -0.036537304520606995,
            -0.34685444831848145,
            0.002922341227531433,
            -0.07579436898231506,
            0.05955295264720917,
            -0.05209130793809891,
            -0.029330456629395485,
            -0.06561993807554245,
            0.07736620306968689,
            0.030294299125671387,
            -0.03455681353807449,
            -0.02985329180955887,
            -0.08132704347372055,
            -0.12564902007579803,
            -0.01604980230331421,
            -0.05591616779565811,
            0.07033021748065948,
            0.34627842903137207,
            0.09387318789958954,
            -0.014869296923279762,
            -0.0012266170233488083,
            -0.00020365696400403976,
            -0.12406928092241287,
            0.0189212579280138,
            -0.18342319130897522,
            -0.10673713684082031,
            0.10384167730808258,
            -0.07292383164167404,
            -0.13960890471935272,
            0.08691029250621796,
            0.06261278688907623,
            -0.24338220059871674,
            0.10299582034349442,
            -0.17051437497138977,
            -0.08359590172767639,
            -0.20734550058841705,
            0.0033715106546878815,
            0.18529590964317322,
            -0.12062590569257736,
            -0.02444528043270111,
            0.02756604366004467,
            -0.07448054850101471,
            0.044903937727212906,
            0.08276290446519852,
            -0.09600687026977539,
            0.012514322996139526,
            -0.082035131752491,
            -0.13361769914627075,
            -0.0035098588559776545,
            0.08365277200937271,
            0.003978144843131304,
            -0.18076369166374207,
            0.049618832767009735,
            -0.07268787175416946
          ]
        ],
        "bias": [
          -0.5409169793128967,
          -0.2877514362335205,
          -0.5861533880233765,
          -0.28326791524887085,
          0.17384707927703857,
          0.3314570188522339,
          -0.2996533215045929,
          -0.44587442278862
        ]
      },
      "hiddenHidden": {
        "weights": [
          [
            -0.24643123149871826,
            -0.4436512589454651,
            -0.4667678475379944,
            -0.023276107385754585,
            0.3757830560207367,
            0.5299480557441711,
            0.3576319217681885,
            0.25426211953163147
          ],
          [
            -0.14396005868911743,
            -0.19752365350723267,
            -0.41655731201171875,
            0.383556067943573,
            0.09024423360824585,
            0.2951492965221405,
            0.20561209321022034,
            0.2685796916484833
          ],
          [
            0.3411465585231781,
            -0.31390753388404846,
            0.2913207411766052,
            -0.001811462570913136,
            0.25516417622566223,
            0.10363872349262238,
            -0.312836617231369,
            0.24496503174304962
          ],
          [
            -0.28663700819015503,
            0.2642238140106201,
            -0.9013635516166687,
            -0.3048805296421051,
            -0.16484025120735168,
            0.3738797605037689,
            -0.21731486916542053,
            -0.1312200129032135
          ],
          [
            -0.08818469941616058,
            -0.20665757358074188,
            -0.5131521224975586,
            0.3575964570045471,
            -0.1788235604763031,
            -0.1408105194568634,
            -0.37650492787361145,
            -0.31852027773857117
          ],
          [
            -0.1880469173192978,
            -0.2854674458503723,
            -0.5399699807167053,
            0.3710702061653137,
            -0.26598769426345825,
            0.4143434166908264,
            -0.42252838611602783,
            0.010388839989900589
          ],
          [
            -0.06385545432567596,
            -0.26445111632347107,
            0.3724224865436554,
            0.16384750604629517,
            0.1223503053188324,
            0.04361264780163765,
            0.3585303723812103,
            -0.25141608715057373
          ],
          [
            -0.43936437368392944,
            0.031033631414175034,
            -0.33392199873924255,
            -0.24488775432109833,
            0.3840169906616211,
            -0.48080044984817505,
            -0.0038575732614845037,
            -0.15136981010437012
          ]
        ],
        "bias": [
          0.24849295616149902,
          0.13134299218654633,
          -0.05245517939329147,
          0.045841313898563385,
          -0.045103490352630615,
          0.1967066377401352,
          -0.010323071852326393,
          0.12573443353176117
        ]
      },
      "hiddenOutput": {
        "weights": [
          [
            -0.7485634684562683,
            -0.5183559060096741,
            -0.5870728492736816,
            0.3539149761199951,
            0.18921561539173126,
            -0.3593347370624542,
            0.09600339829921722,
            0.8047696352005005
          ],
          [
            -0.7824798822402954,
            0.17952361702919006,
            -0.1705685555934906,
            0.47096383571624756,
            0.4227446913719177,
            0.37692925333976746,
            -0.8033532500267029,
            -0.3772020637989044
          ]
        ],
        "bias": [
          0.04757106304168701,
          -0.21821042895317078
        ]
      }
    }
  },
  "metadata": {
    "createdAtUtc": "2026-05-04T03:27:51.744075+00:00",
    "generator": "poc/cursor-prediction-v16/scripts/run-runtime-ready-distillation-gpu.py",
    "artifactPolicy": "JSON text only; no checkpoints or tensor dumps."
  },
  "parity": {
    "method": "python_reference_runtime_graph_vs_serialized_generated_shape",
    "csharpCompileRun": "not_applicable_shortlist_candidate",
    "maxErrorPx": 0,
    "p99ErrorPx": 0,
    "targetMaxErrorPx": 0.01,
    "passed": true
  }
}
