{
  "schemaVersion": "cursor-prediction-v20-step01-asymmetric-loss-compact-mlp/1",
  "spec": {
    "Id": "mlp_temporal_h32_event_safe",
    "Family": "MLP",
    "FeatureKind": "temporal",
    "Hidden": 32,
    "TrainingTarget": "event-safe shifted target",
    "RuntimeShape": "one hidden tanh MLP, dense temporal windows, CPU-distillable",
    "LossKind": "eventSafe",
    "LeadWeight": 0,
    "EventLeadMultiplier": 1,
    "LagWeight": 1,
    "EventWeight": 12,
    "StaticWeight": 2.5
  },
  "normalization": {
    "Mean": [
      0.08333062982316063,
      0.038478285998871375,
      -9.62532485432796E-12,
      0.06320357326635997,
      0.03855843735491794,
      8.331270550290092E-07,
      0.062172016348852784,
      0.03880682854885258,
      1.9903114884095302E-06,
      0.0616684034123027,
      0.03914860348504375,
      2.368307965096296E-06,
      0.06144410459064766,
      0.03953860945342191,
      1.8709091903771707E-07,
      0.061241850289776724,
      0.06635953939981859,
      0.2627023756536856,
      0.27376845569763564,
      0.2274201992950443,
      0.8576140003669482,
      0.045022518305118324,
      0.0161479769223563,
      0.9978127985133964,
      0.0021866079795588417
    ],
    "Std": [
      0.21966753518809884,
      0.1554456866602094,
      0.05,
      0.1177143183180311,
      0.15319305471290137,
      0.05,
      0.10697801356732652,
      0.15153705749964766,
      0.05,
      0.101050066274142,
      0.1509052128832787,
      0.05,
      0.09581776709499765,
      0.15111703347962072,
      0.05,
      0.0906985333255151,
      0.11519377961461592,
      0.488137586695658,
      0.39316883056219093,
      0.324019718351329,
      0.2926502762965809,
      0.16419516984708493,
      0.05237157471980721,
      0.05,
      0.06437891585694967
    ]
  },
  "weights": {
    "input": 25,
    "hidden": 32,
    "activation": "tanh",
    "w1": [
      [
        0.43277697,
        -0.16786445,
        -0.04355132,
        -0.0251382,
        -0.00507009,
        0.0070923,
        0.28892346,
        0.15915306,
        0.01278952,
        0.16405573,
        -0.12594529,
        0.16471481,
        0.28192708,
        0.20239513,
        -0.11429451,
        0.00691344,
        0.0538217,
        0.07368342,
        0.05850278,
        0.11875086,
        0.12171666,
        -0.06441809,
        -0.15372959,
        0.12362547,
        0.11529292
      ],
      [
        0.51894221,
        0.06529707,
        -0.01326687,
        0.14039506,
        -0.06144366,
        0.19104055,
        0.3206308,
        -0.14181512,
        -0.05703143,
        0.12031428,
        -0.2945853,
        0.12534445,
        -0.08910398,
        -0.19705706,
        -0.08193058,
        0.22223613,
        0.24562873,
        0.29500354,
        -0.03128423,
        0.04226677,
        0.30846256,
        0.07712901,
        0.0299985,
        0.23709302,
        -0.55087024
      ],
      [
        0.28615419,
        -0.27725349,
        -0.11550673,
        0.00041924,
        -0.05128724,
        -0.33264959,
        -0.07685385,
        0.17624424,
        -0.18557455,
        0.37276546,
        0.21482912,
        -0.22040227,
        0.26227503,
        -0.28453278,
        -0.01465184,
        0.18723532,
        0.16805396,
        0.01042597,
        -0.10801919,
        0.11078218,
        -0.03629379,
        0.16532178,
        -0.20125909,
        0.37104214,
        -0.02378603
      ],
      [
        -0.07494359,
        -0.06277516,
        0.65103536,
        -0.09405888,
        0.0443101,
        0.64384139,
        -0.16563103,
        0.08503451,
        0.30304702,
        0.08940641,
        0.18327816,
        0.50396814,
        0.18181325,
        -0.11178612,
        0.24062077,
        -0.25275445,
        -0.2134284,
        0.27090638,
        0.03044029,
        -0.07397866,
        0.03122668,
        -0.14171725,
        0.04863103,
        0.16007215,
        -0.02755569
      ],
      [
        -0.22427379,
        -0.08658099,
        0.01291933,
        -0.0816753,
        0.04701048,
        0.27560428,
        -0.12845007,
        0.07266941,
        0.31275071,
        0.18790194,
        0.17280263,
        0.02737213,
        0.19246703,
        -0.21891575,
        -0.11706308,
        0.09135083,
        0.09639564,
        0.02383141,
        -0.08200962,
        0.03818971,
        0.22800103,
        0.08042667,
        -0.04885405,
        0.07356421,
        0.06520942
      ],
      [
        -0.08388002,
        -0.30177361,
        0.08715776,
        0.09423459,
        0.21380199,
        -0.03315628,
        0.14615573,
        0.10512702,
        0.17617222,
        0.28347816,
        -0.05179429,
        -0.02996716,
        -0.19077628,
        -0.35316835,
        0.18513403,
        -0.11050422,
        -0.18780656,
        0.26337928,
        0.00095876,
        0.02162875,
        0.1614637,
        0.03370128,
        -0.02831051,
        0.11925528,
        -0.07238258
      ],
      [
        0.13154694,
        -0.04890878,
        0.04986845,
        0.11232476,
        0.01457405,
        -0.10390789,
        -0.00524237,
        -0.03064312,
        -0.18901715,
        0.26107617,
        0.20510439,
        -0.09552543,
        -0.02938063,
        -0.06495915,
        0.01285517,
        -0.08354068,
        -0.14356147,
        -0.0440052,
        -0.07779234,
        0.04074632,
        0.08051965,
        -0.00929171,
        0.02182184,
        0.00546612,
        -0.09822693
      ],
      [
        -0.12834379,
        0.10627291,
        -0.10270153,
        -0.25160394,
        0.10291469,
        0.03922704,
        -0.25276957,
        0.09628874,
        0.0487782,
        -0.05982917,
        0.05138993,
        0.12770935,
        -0.08567146,
        0.10149439,
        0.07088046,
        -0.07701663,
        -0.13990659,
        -0.13004109,
        -0.23767938,
        0.11071684,
        0.05166793,
        0.15137742,
        -0.00789358,
        -0.10912654,
        0.36295458
      ],
      [
        -0.52835758,
        0.1696561,
        0.12791416,
        -0.25759777,
        0.12026586,
        0.25436171,
        -0.07785569,
        -0.18134314,
        0.02110212,
        0.10468742,
        0.16315302,
        0.20696435,
        0.16972491,
        -0.06084158,
        -0.04844655,
        0.03390765,
        0.00976692,
        -0.09365762,
        0.0012065,
        -0.04620507,
        -0.50619824,
        0.04095192,
        0.05416035,
        0.06000076,
        -0.02284794
      ],
      [
        0.02998939,
        -0.0715493,
        -0.16231494,
        0.04089461,
        -0.00049926,
        0.0942359,
        -0.03314008,
        -0.00979502,
        0.05039314,
        -0.100957,
        -0.35063039,
        0.06794031,
        0.0933729,
        0.12339868,
        0.19681647,
        -0.00332009,
        0.12275385,
        0.11174087,
        0.13910092,
        -0.01019452,
        -0.02105809,
        0.39549516,
        -0.29052774,
        -0.03861047,
        0.09362639
      ],
      [
        0.16496178,
        0.08390361,
        0.06174543,
        0.00494061,
        -0.11742486,
        0.27680198,
        0.00537895,
        0.0672595,
        0.21644638,
        0.20133228,
        0.03769314,
        -0.06676371,
        -0.06581295,
        0.10633726,
        -0.0492351,
        0.12978663,
        -0.1274858,
        -0.05291004,
        -0.09423979,
        -0.06597467,
        0.03942942,
        -0.04287036,
        0.03055874,
        0.0119706,
        -0.26506951
      ],
      [
        0.02744457,
        0.08129941,
        0.13908955,
        0.01220131,
        0.18081253,
        -0.02101222,
        -0.0337814,
        -0.22549187,
        0.08255757,
        0.07626383,
        -0.20544987,
        -0.03956018,
        -0.10876828,
        0.08648072,
        0.13892237,
        0.09407948,
        -0.09448776,
        -0.06736307,
        -0.07781657,
        0.06064692,
        -0.07965881,
        -0.06646613,
        0.04627506,
        0.12486501,
        0.23265655
      ],
      [
        -0.52696564,
        0.00299461,
        0.31751895,
        0.06485762,
        0.09347896,
        -0.03976991,
        -0.28545244,
        0.10168895,
        -0.00927714,
        -0.08424611,
        0.25766127,
        0.14053332,
        -0.15406741,
        0.09313566,
        0.17166075,
        -0.10570119,
        -0.3080291,
        0.02173895,
        -0.25675399,
        0.08069215,
        -0.24737772,
        0.13259386,
        -0.00175436,
        -0.08395909,
        -0.19784256
      ],
      [
        0.19911748,
        -0.23535655,
        -0.07791723,
        -0.25243936,
        0.36845097,
        0.1095595,
        0.14654664,
        0.57433401,
        -0.04464576,
        0.27583939,
        0.29566327,
        -0.09744044,
        -0.0854822,
        0.12698773,
        0.02650453,
        -0.09715051,
        0.05566308,
        0.11909838,
        0.03989288,
        0.06331005,
        0.59897381,
        -0.40007739,
        -0.04805802,
        -0.03157615,
        -0.14756094
      ],
      [
        0.10192013,
        0.07801787,
        -0.28492952,
        -0.1054682,
        -0.06483809,
        -0.15232903,
        0.12454842,
        0.08196883,
        -0.05720838,
        -0.11486064,
        0.0602425,
        -0.00918761,
        -0.03456048,
        0.02794651,
        0.00176523,
        -0.14785243,
        -0.09002568,
        0.05943209,
        -0.04582897,
        0.0196006,
        0.1485715,
        -0.17601076,
        0.10105757,
        -0.01386358,
        -0.02123043
      ],
      [
        0.74949087,
        0.14520624,
        0.28748723,
        0.08844244,
        0.03869692,
        0.23449239,
        -0.0162422,
        -0.04421794,
        0.29089415,
        0.1534092,
        -0.04417189,
        0.1079582,
        0.01980214,
        0.00573822,
        0.0254575,
        0.04092247,
        0.22354712,
        0.07773003,
        0.0130781,
        0.19415213,
        0.14223969,
        -0.31654868,
        0.2536467,
        0.23326572,
        0.14523652
      ],
      [
        0.15566133,
        -0.10863962,
        -0.10953128,
        0.11875917,
        -0.02259655,
        0.10443817,
        0.03407083,
        0.11154613,
        -0.13014063,
        -0.04434324,
        0.10224294,
        -0.21173894,
        -0.10872262,
        -0.17813613,
        -0.06081724,
        -0.00792866,
        -0.05526826,
        0.10630889,
        0.06275234,
        -0.02716609,
        0.16232118,
        0.07858709,
        -0.00778524,
        0.17393907,
        0.09366129
      ],
      [
        0.81153791,
        -0.05448896,
        -0.0084522,
        -0.01163777,
        -0.07612124,
        0.0004323,
        -0.07694913,
        0.02559869,
        0.08987714,
        0.16280345,
        -0.17685624,
        0.10324205,
        -0.014228,
        -0.07103932,
        0.06778887,
        0.09340764,
        0.00922527,
        0.13744339,
        -0.08617303,
        0.05842756,
        -0.14323213,
        -0.00718502,
        -0.08072404,
        0.42395854,
        -0.48350596
      ],
      [
        -0.24279563,
        0.06506156,
        0.01380449,
        0.11465408,
        0.0494693,
        0.04719151,
        -0.21404729,
        0.01770477,
        0.05881833,
        -3.35E-05,
        0.05197526,
        0.07596849,
        -0.08849979,
        0.0846844,
        0.24440169,
        0.07613368,
        -0.20906105,
        -0.12021896,
        -0.07582586,
        0.02947673,
        -0.02239091,
        0.04981669,
        0.04971173,
        -0.11002621,
        0.30366509
      ],
      [
        0.23331001,
        0.25671965,
        -0.07851161,
        0.14039608,
        0.14507409,
        -0.04784438,
        0.10813053,
        -0.16465214,
        -0.25617936,
        0.16944214,
        -0.12866745,
        -0.14053315,
        -0.08045067,
        -0.18291301,
        0.05140746,
        0.08637511,
        0.0889016,
        0.22511095,
        -0.101103,
        0.03129841,
        -0.05051868,
        -0.01963252,
        0.00589994,
        0.01768389,
        0.20056778
      ],
      [
        -0.47855099,
        -0.2313786,
        0.28767424,
        -0.23274852,
        0.0732126,
        0.08112651,
        -0.21264425,
        -0.09132282,
        0.16139357,
        -0.20851891,
        -0.02999112,
        0.04162206,
        0.19632199,
        0.35454575,
        0.02285138,
        0.21403132,
        0.10754711,
        -0.29039539,
        0.09154591,
        -0.06885997,
        -0.26471995,
        -0.00034608,
        -0.04451333,
        -0.16060385,
        0.2935184
      ],
      [
        0.10070807,
        -0.07944089,
        0.03800727,
        0.01154739,
        -0.05179117,
        -0.07078131,
        0.12194773,
        0.07362756,
        0.03271574,
        0.12356302,
        -0.1484256,
        -0.03602463,
        0.1094116,
        -0.12397087,
        0.00438204,
        0.08766104,
        0.04331886,
        -0.03592747,
        -0.05614903,
        0.223983,
        0.160698,
        0.05638938,
        0.05685038,
        -0.00951436,
        -0.03110067
      ],
      [
        0.03084873,
        -0.18977641,
        -0.10645822,
        -0.05438165,
        0.28336782,
        -0.20918415,
        -0.05713348,
        0.13677935,
        -0.12694298,
        0.27167022,
        -0.15348753,
        -0.09842134,
        0.1795572,
        -0.29622303,
        -0.28531621,
        0.01354961,
        0.01609918,
        -0.01890935,
        0.0521825,
        -0.02894481,
        -0.00063665,
        0.02188087,
        -0.10948989,
        0.22680592,
        0.06063757
      ],
      [
        -0.24209869,
        0.03297246,
        0.29729538,
        -0.00230167,
        0.0879723,
        0.12468523,
        0.00497889,
        -0.14611241,
        0.11440937,
        -0.03662944,
        0.25297568,
        0.05273157,
        -0.06733781,
        -0.05131432,
        -0.05209057,
        0.14590992,
        0.0712723,
        -0.15001337,
        -0.07980858,
        -0.00698231,
        0.03821213,
        -0.00538178,
        0.05768467,
        -0.26070715,
        -0.01931103
      ],
      [
        0.3582792,
        -0.08703063,
        0.12554126,
        0.14574457,
        -0.06328815,
        0.24979765,
        -0.01766696,
        0.30976995,
        0.07257541,
        0.04840962,
        -0.02870799,
        -0.02482824,
        0.27933264,
        0.1097778,
        -0.01892154,
        0.07947942,
        -0.01426655,
        -0.07839449,
        0.02231877,
        -0.12611631,
        0.00580611,
        -0.20776543,
        0.11583173,
        0.0427542,
        -0.36036308
      ],
      [
        -0.07072893,
        0.11286114,
        -0.07310751,
        -0.15979513,
        0.03601074,
        -0.0024591,
        -0.17826409,
        0.03908502,
        -0.25303767,
        -0.11093893,
        0.05109467,
        -0.3406267,
        -0.04971999,
        0.07846259,
        -0.00322031,
        0.1766683,
        -0.13708789,
        -0.05095984,
        -0.12933049,
        -0.11243244,
        -0.03776682,
        0.10792385,
        -0.00925246,
        -0.07486287,
        0.24334436
      ],
      [
        -0.08778452,
        0.11644585,
        0.19101786,
        -0.27865606,
        0.16862665,
        0.04571865,
        -0.20065048,
        -0.06655658,
        0.13283985,
        -0.14555294,
        -0.03873582,
        0.08047491,
        -0.05590201,
        0.22230774,
        0.05103039,
        0.08422029,
        -0.09208281,
        -0.06930658,
        -0.18543147,
        -0.10844272,
        -0.00830434,
        0.1480793,
        -0.01569023,
        0.06112956,
        -0.01813341
      ],
      [
        -0.09915076,
        -0.12861413,
        0.13418893,
        0.14419469,
        0.03392197,
        0.08264645,
        -0.08147202,
        0.05788415,
        -0.00555888,
        -0.24019529,
        -0.00801647,
        0.09436907,
        -0.04252415,
        -0.0014448,
        -0.14167218,
        0.16779453,
        0.08671685,
        0.07504384,
        0.02836603,
        0.02027296,
        -0.2522017,
        0.1443895,
        -0.08202504,
        0.00231387,
        -0.17057289
      ],
      [
        -0.34970474,
        -0.17787958,
        -0.07660994,
        -0.06019002,
        -0.08261984,
        0.10169888,
        -0.33655859,
        0.08853257,
        0.08903896,
        -0.23936227,
        0.22115163,
        0.02202042,
        -0.09393598,
        0.20808019,
        0.08134446,
        -0.2208781,
        0.00828867,
        -0.07345406,
        0.09342653,
        0.07613873,
        -0.15146284,
        -0.01591051,
        0.02013286,
        -0.13336814,
        -0.06119807
      ],
      [
        0.12339875,
        0.05293266,
        -0.32622966,
        -0.11536861,
        0.0877511,
        -0.06572406,
        -0.03579046,
        0.06417761,
        -0.2048999,
        -0.12728553,
        0.20235596,
        -0.11575026,
        0.16843527,
        0.11942525,
        -0.28459636,
        -0.12347302,
        -0.11716214,
        0.14490376,
        -0.05846779,
        -0.02960004,
        -0.1123486,
        0.23195621,
        0.35183644,
        0.21246723,
        -0.01969721
      ],
      [
        -0.33592612,
        -0.04853808,
        -0.27573844,
        -0.00554945,
        0.10350478,
        -0.18456748,
        -0.18060764,
        0.08226085,
        -0.11179295,
        0.0118783,
        0.11022253,
        -0.19214108,
        0.03785856,
        -0.09185856,
        -0.09088584,
        -0.01142869,
        -0.05415449,
        0.07959009,
        0.03671874,
        -0.08365612,
        -0.15187585,
        0.04256386,
        0.04600403,
        -0.05383028,
        0.06319597
      ],
      [
        0.21709958,
        0.0494622,
        0.09430238,
        0.00247519,
        -0.08770055,
        -0.12099553,
        -0.11655609,
        -0.08033201,
        0.01890842,
        0.15903646,
        -0.06417639,
        -0.09746321,
        -0.04298512,
        0.01557187,
        0.10907847,
        -0.02952274,
        0.09956923,
        0.03456335,
        0.12158319,
        -0.08857227,
        0.38201912,
        -0.02159961,
        -0.0437,
        -0.07512823,
        0.19589089
      ]
    ],
    "b1": [
      0.310486831814302,
      0.40968037354384435,
      -0.01898015899380781,
      0.27064571398331844,
      -0.1443623637446348,
      0.02008295921144187,
      0.009078244108930674,
      -0.23177947272831587,
      -0.13552804278970235,
      0.0552318021400411,
      -0.004267807520565566,
      -0.05210593260162986,
      -0.040473475588347414,
      0.19929331184974974,
      0.021255495362429152,
      0.45164390579320085,
      0.11886363189363405,
      0.1515225577878738,
      -0.13329311003475056,
      0.17011049552900673,
      -0.24206990669393433,
      0.21702216528223353,
      -0.0010027406316881762,
      -0.07014353156399086,
      0.27120838025298266,
      -0.13403029578226752,
      -0.06590224262335447,
      0.01587777045221417,
      -0.24664338201665617,
      0.09348317098232257,
      -0.04609910658543007,
      0.10213905817738053
    ],
    "w2": [
      [
        0.33515351,
        0.35708055,
        0.32485569,
        -0.45511447,
        0.27046793,
        -0.70850575,
        0.73212836,
        0.50981778,
        0.75898728,
        0.50060574,
        0.55282398,
        -0.50256012,
        0.61307843,
        0.56170841,
        -0.50471948,
        0.42294869,
        0.81653473,
        -0.84649012,
        0.56795895,
        0.61739415,
        -0.70517066,
        0.18136796,
        -0.71320511,
        0.70646638,
        0.41755972,
        0.71931243,
        0.63248398,
        0.5134687,
        -0.45246678,
        -0.08702172,
        0.76108196,
        -0.66056284
      ],
      [
        0.08422176,
        -0.04867912,
        -0.1027786,
        0.08283473,
        0.08446836,
        0.02004969,
        -0.01925302,
        -0.00664974,
        0.04634475,
        0.04668116,
        0.06209733,
        0.12991373,
        0.05606382,
        -0.02879393,
        -0.09541635,
        0.08842059,
        0.04634071,
        0.01137728,
        -0.0923401,
        -0.02381363,
        -0.02091903,
        -0.01488337,
        -0.06191308,
        0.10697782,
        0.01530272,
        -0.06733495,
        0.08256547,
        0.02539531,
        -0.00815031,
        0.00793272,
        -0.09031417,
        0.00861805
      ]
    ],
    "b2": [
      0.28205625707186066,
      -0.04499249577708013
    ]
  },
  "runtime": {
    "estimatedMacs": 864,
    "parameters": 898,
    "branches": "none",
    "inputFeatures": 25,
    "hidden": 32
  }
}