{
  "schemaVersion": "cursor-prediction-v19-step06-compact-mlp/1",
  "spec": {
    "Id": "mlp_temporal_h32_event_safe",
    "Family": "MLP",
    "FeatureKind": "temporal",
    "Hidden": 32,
    "TrainingTarget": "event-safe shifted target",
    "RuntimeShape": "one hidden tanh MLP, dense temporal windows, CPU-distillable"
  },
  "normalization": {
    "Mean": [
      0.08333062982316063,
      0.038478285998871375,
      -9.62532485432796E-12,
      0.06320357326635997,
      0.03855843735491794,
      8.331270550290092E-07,
      0.062172016348852784,
      0.03880682854885258,
      1.9903114884095302E-06,
      0.0616684034123027,
      0.03914860348504375,
      2.368307965096296E-06,
      0.06144410459064766,
      0.03953860945342191,
      1.8709091903771707E-07,
      0.061241850289776724,
      0.06635953939981859,
      0.2627023756536856,
      0.27376845569763564,
      0.2274201992950443,
      0.8576140003669482,
      0.045022518305118324,
      0.0161479769223563,
      0.9978127985133964,
      0.0021866079795588417
    ],
    "Std": [
      0.21966753518809884,
      0.1554456866602094,
      0.05,
      0.1177143183180311,
      0.15319305471290137,
      0.05,
      0.10697801356732652,
      0.15153705749964766,
      0.05,
      0.101050066274142,
      0.1509052128832787,
      0.05,
      0.09581776709499765,
      0.15111703347962072,
      0.05,
      0.0906985333255151,
      0.11519377961461592,
      0.488137586695658,
      0.39316883056219093,
      0.324019718351329,
      0.2926502762965809,
      0.16419516984708493,
      0.05237157471980721,
      0.05,
      0.06437891585694967
    ]
  },
  "weights": {
    "input": 25,
    "hidden": 32,
    "activation": "tanh",
    "w1": [
      [
        0.25106344,
        0.1097666,
        0.09916449,
        0.14814609,
        0.08026061,
        0.14802526,
        0.05948329,
        0.19680724,
        -0.06550889,
        0.01042596,
        0.00450697,
        0.19735286,
        0.1473173,
        0.07629608,
        0.06058503,
        0.19134636,
        -0.22795585,
        0.03268091,
        -0.07466361,
        -0.16911099,
        -0.05081281,
        0.17223144,
        0.30789673,
        0.14539669,
        -0.08747798
      ],
      [
        0.44457891,
        0.00095118,
        0.16704695,
        -0.00901275,
        0.28488369,
        0.10158277,
        -0.04405909,
        0.08132524,
        0.07318357,
        -0.01781071,
        0.01264081,
        0.14966029,
        -0.03160136,
        -0.10191653,
        -0.04154902,
        -0.21273991,
        -0.20814692,
        -0.03431183,
        0.02850827,
        -0.0547082,
        0.19675769,
        -0.32925293,
        0.1954189,
        0.26723145,
        -0.16329742
      ],
      [
        -0.48580993,
        0.13195381,
        -0.16071969,
        -0.02461563,
        0.05750486,
        -0.19326605,
        -0.15321693,
        -0.31139578,
        -0.1029922,
        -0.07862981,
        0.01381929,
        0.0559713,
        -0.17184652,
        -0.17761427,
        0.12986962,
        -0.0004649,
        0.08192195,
        -0.15169341,
        -0.2019749,
        -0.10181762,
        -0.09301877,
        0.29686258,
        -0.0825462,
        -0.15039128,
        0.15794749
      ],
      [
        -0.63892334,
        -0.0303508,
        -0.40954175,
        -0.13081531,
        0.10420396,
        -0.35679148,
        -0.14451139,
        0.00758914,
        -0.17448459,
        0.01831667,
        0.09154856,
        -0.0757635,
        -0.02272811,
        -0.03347593,
        -0.0562218,
        0.11014349,
        0.003573,
        0.14564577,
        -0.02392461,
        0.0437001,
        -0.39620649,
        0.11322796,
        -0.00685891,
        -0.23103613,
        0.34647571
      ],
      [
        0.07741599,
        0.13263088,
        0.01118823,
        -0.07976581,
        0.04610685,
        -0.12337406,
        -0.17187227,
        -0.04868521,
        0.02529744,
        -0.15588751,
        -0.2079452,
        -0.15606392,
        0.10580501,
        0.12839375,
        -0.09850618,
        0.04588702,
        0.14379317,
        -0.04674548,
        0.03899005,
        -0.05944878,
        0.07907646,
        0.05378494,
        0.03100671,
        -0.11715253,
        0.23102968
      ],
      [
        -0.24466828,
        -0.26524861,
        -0.04714977,
        -0.13430092,
        0.03276836,
        0.09047599,
        -0.091755,
        0.05701786,
        0.0275265,
        -0.08599934,
        0.08696965,
        0.20807887,
        0.11125186,
        -0.06228969,
        0.22166998,
        0.08579741,
        0.03287535,
        0.02917583,
        -0.08327085,
        0.09587229,
        0.01072936,
        0.03137124,
        0.00818025,
        -0.22482179,
        0.31423397
      ],
      [
        -0.29887192,
        -0.00671852,
        -0.20127415,
        -0.00817331,
        0.16116023,
        -0.17869182,
        -0.10773285,
        -0.19034873,
        0.01225738,
        -0.09216212,
        -0.21673208,
        -0.11864417,
        -0.24845329,
        0.19501625,
        -0.05957443,
        0.0524329,
        0.02685571,
        0.14713297,
        0.01424574,
        0.06934751,
        -0.19419245,
        0.03573009,
        -0.02095284,
        -0.3650331,
        0.1352891
      ],
      [
        -0.01203527,
        -0.03796267,
        0.16692282,
        0.00138205,
        -0.18894304,
        0.14058289,
        0.17555555,
        0.23773297,
        0.14446432,
        0.05717901,
        0.28775653,
        -0.04455165,
        -0.04820854,
        -0.16941142,
        0.23906521,
        -0.07669591,
        -0.26201696,
        0.12852418,
        0.0654559,
        -0.06421609,
        -0.13192823,
        0.01864122,
        -0.00171816,
        -0.0338741,
        -0.15017887
      ],
      [
        -0.48750726,
        0.09538993,
        -0.08466833,
        -0.07687659,
        0.13219794,
        -0.00793683,
        -0.21885686,
        -0.02721476,
        -0.0307124,
        -0.06030868,
        0.13432946,
        0.03187617,
        0.10824177,
        0.00075195,
        -0.19999188,
        0.02122349,
        -0.07154518,
        -0.0200934,
        -0.03451666,
        -0.05984504,
        -0.3568782,
        0.02385572,
        0.05932386,
        -0.03051448,
        -0.20351464
      ],
      [
        0.4504704,
        0.02366132,
        -0.00739127,
        0.10731458,
        -0.04041887,
        -0.13671748,
        -0.00930007,
        -0.2274952,
        -0.1306954,
        0.02636066,
        -0.08033621,
        -0.12456214,
        -0.14956755,
        0.21420542,
        0.10119647,
        0.16588879,
        0.25946195,
        -0.10959135,
        0.09755337,
        -0.12690151,
        0.19713035,
        0.04996725,
        -0.05017157,
        0.04442978,
        0.10631074
      ],
      [
        -0.11028226,
        0.00563618,
        -0.09410199,
        -0.11634441,
        0.00907465,
        0.0420079,
        0.00054824,
        -0.1419963,
        -0.1794278,
        0.28186887,
        -0.06242984,
        -0.01339228,
        0.01645413,
        0.06297205,
        -0.15178659,
        -0.11045041,
        0.08870027,
        0.00600243,
        0.03678273,
        0.00804488,
        -0.12502842,
        -0.00214031,
        -0.03889513,
        0.07783497,
        -0.04348426
      ],
      [
        0.02770681,
        0.17677758,
        0.01306022,
        0.12993597,
        0.03516097,
        -0.17988919,
        -0.21501116,
        -0.33782794,
        -0.35940575,
        -0.26259852,
        0.04922789,
        -0.25908286,
        -0.1323814,
        0.17070161,
        -0.20018677,
        0.06848047,
        -0.02515252,
        0.02732742,
        0.02563033,
        -0.09292874,
        -0.00247432,
        0.03134312,
        0.13444888,
        -0.06568082,
        0.24271963
      ],
      [
        -0.15266553,
        -0.0247837,
        -0.15008373,
        0.03991631,
        0.13495414,
        -0.28534172,
        -0.2116983,
        0.06702663,
        -0.11159555,
        -0.06083534,
        0.21602831,
        -0.16784289,
        -0.03516862,
        -0.08706736,
        -0.06865524,
        -0.05342485,
        -0.13551418,
        -0.13956655,
        -0.10673033,
        -0.10219168,
        0.09173377,
        0.15452731,
        -0.03739646,
        -0.20367181,
        0.28669202
      ],
      [
        0.51765404,
        -0.03271898,
        -0.30804378,
        0.05472507,
        -0.05131351,
        -0.21571618,
        -0.00170207,
        -0.01717402,
        -0.14147023,
        0.0318894,
        -0.09493585,
        -0.16888076,
        0.0070976,
        -0.05552379,
        -0.04811685,
        -0.04765363,
        0.05830082,
        0.01791389,
        0.1597926,
        -0.08681088,
        0.53651764,
        -0.04823402,
        -0.03915345,
        0.03916113,
        0.06926899
      ],
      [
        0.60792294,
        0.20392624,
        -0.16408422,
        0.09865957,
        0.20989959,
        -0.32318022,
        0.11640376,
        -0.11082129,
        -0.24347413,
        -0.09836786,
        0.02298883,
        -0.26195287,
        -0.07401575,
        -0.08553421,
        -0.18221099,
        0.07467354,
        -0.02469226,
        -0.07846225,
        -0.0469763,
        -0.03794985,
        0.29138575,
        -0.1446515,
        0.08338462,
        0.35433655,
        -0.06280717
      ],
      [
        0.14174729,
        -0.07886124,
        -0.09162525,
        -0.37621106,
        0.16341446,
        -0.21856668,
        -0.24111484,
        0.0394035,
        -0.06621394,
        -0.21417814,
        0.22282231,
        -0.03830701,
        -0.01971765,
        0.37270017,
        -0.30812406,
        0.02839408,
        -0.25623366,
        -0.41689658,
        -0.09051502,
        -0.22555056,
        -0.01781308,
        -0.22489766,
        0.06793793,
        0.03911771,
        0.07234964
      ],
      [
        0.33092554,
        0.22565025,
        0.40616033,
        -0.14748236,
        -0.12173179,
        0.36702416,
        -0.13187843,
        -0.18657981,
        0.23603465,
        -0.21131335,
        0.16816157,
        0.2209311,
        -0.23270754,
        0.16342512,
        0.0897987,
        -0.2112801,
        0.0361546,
        0.07003724,
        -0.10517129,
        0.06752731,
        -0.51643916,
        -0.12248049,
        0.11448987,
        -0.09697354,
        -0.07146524
      ],
      [
        -0.26879147,
        -0.27711129,
        -0.23425725,
        -0.18748808,
        0.14709591,
        -0.09355133,
        -0.21747677,
        -0.05023616,
        -0.08574808,
        -0.20195736,
        0.15358321,
        -0.01511503,
        0.21981156,
        0.12723248,
        -0.07960094,
        0.17753166,
        0.08512392,
        -0.28749261,
        -0.0114321,
        -0.10073976,
        -0.22437094,
        -0.00112922,
        -0.0635137,
        -0.24247833,
        0.2196936
      ],
      [
        0.42705481,
        -0.33110536,
        0.0025459,
        0.02816177,
        0.00098034,
        -0.30022397,
        -0.05015695,
        0.51339617,
        0.00263144,
        0.39214897,
        0.432349,
        -0.1631118,
        0.22546139,
        0.01389118,
        -0.05177873,
        0.04415602,
        0.20787727,
        -0.04943647,
        -0.08014812,
        0.16868467,
        0.2777105,
        -0.25626542,
        -0.09186374,
        0.18952117,
        -0.15911661
      ],
      [
        0.08677911,
        -0.12685058,
        0.0140171,
        0.25266775,
        -0.26940371,
        0.01310329,
        0.14341686,
        0.00881357,
        0.09762605,
        0.23345224,
        -0.28530821,
        0.04780231,
        -0.00029984,
        0.05600094,
        0.2068433,
        0.01306374,
        0.32396344,
        0.25326511,
        0.17427681,
        0.12540592,
        -0.09454379,
        -0.12053004,
        0.06441954,
        -0.00490061,
        -0.05698154
      ],
      [
        -0.26314688,
        0.17250366,
        -0.06638218,
        -0.02164347,
        -0.02889206,
        -0.13785366,
        -0.21236579,
        -0.13376657,
        -0.12672546,
        -0.21888806,
        0.15025176,
        -0.00826204,
        0.06448541,
        0.29101414,
        -0.11379685,
        -0.05586368,
        0.04626804,
        -0.09864102,
        0.00768009,
        0.03515965,
        -0.33216943,
        -0.07385001,
        0.12061703,
        -0.00128197,
        -0.16950183
      ],
      [
        0.01700194,
        -0.08819115,
        0.08582686,
        0.00398713,
        -0.00017565,
        0.04782636,
        -0.29798378,
        0.18824697,
        0.03633228,
        0.0722115,
        0.10325893,
        0.16050211,
        -0.0039538,
        0.14915112,
        -0.09459951,
        0.15004067,
        0.20704554,
        0.05587097,
        0.03437204,
        -0.12052875,
        0.40783328,
        -0.09270938,
        -0.00180615,
        -0.01531331,
        0.12954452
      ],
      [
        -0.05629045,
        0.22384395,
        0.01475164,
        0.05265478,
        -0.07057887,
        -0.11485671,
        -0.21209284,
        -0.12566072,
        -0.07533305,
        -0.24310221,
        -0.0657112,
        0.1705183,
        0.10281418,
        0.26948329,
        0.22054872,
        0.09371731,
        -0.06093568,
        -0.00997054,
        0.01199386,
        -0.11498324,
        -0.05243516,
        -0.16043279,
        0.061337,
        -0.08280822,
        -0.17482443
      ],
      [
        0.07204091,
        -0.08970349,
        -0.13609296,
        0.19702762,
        -0.09871687,
        -0.0409465,
        0.16295369,
        -0.11140448,
        0.27397535,
        0.18082979,
        -0.02592666,
        0.10027563,
        0.02763334,
        -0.16106683,
        0.13397557,
        -0.12574968,
        0.36167562,
        0.06616469,
        0.19330014,
        0.20940111,
        -0.15537848,
        -0.139783,
        -0.00864938,
        0.3031623,
        -0.07093013
      ],
      [
        0.06663843,
        0.20266036,
        0.31433368,
        -0.1124288,
        -0.09594266,
        -0.03184471,
        -0.16467659,
        -0.2387392,
        0.07156028,
        -0.26686185,
        0.08872669,
        -0.12562526,
        0.0026987,
        0.30672688,
        0.12747594,
        -0.05059366,
        0.04525528,
        0.09761759,
        -0.03023637,
        -0.03139086,
        -0.1148753,
        0.0501704,
        0.02913003,
        0.06989075,
        0.10273304
      ],
      [
        0.29385127,
        -0.23189484,
        -0.12964252,
        0.17801621,
        0.03507004,
        -0.29094793,
        0.14954161,
        -0.18631944,
        -0.19622503,
        0.07755155,
        -0.17952362,
        -0.14132833,
        0.20205208,
        0.02604404,
        -0.13091094,
        -0.11335502,
        0.19369311,
        0.29528962,
        -0.03698959,
        0.20106247,
        0.08722267,
        -0.08306345,
        -0.01410959,
        0.20196713,
        0.22057591
      ],
      [
        -0.0098497,
        0.14228404,
        0.20494371,
        -0.02413481,
        0.02952867,
        0.03492508,
        -0.01439877,
        0.05776214,
        0.1368557,
        -0.03225177,
        -0.08562904,
        0.23523894,
        -0.13738849,
        0.09183827,
        -0.21450016,
        -0.19721192,
        0.00933195,
        -0.08726651,
        -0.07373977,
        -0.08256127,
        0.07747004,
        0.26941263,
        0.00168924,
        0.01588378,
        -0.24718874
      ],
      [
        -0.08326268,
        0.13116645,
        -0.07219806,
        0.06370308,
        -0.11014387,
        0.05829593,
        0.00515453,
        -0.16236865,
        0.0712561,
        -0.14825678,
        0.04292585,
        0.15722839,
        -0.03292202,
        0.3273964,
        -0.17748645,
        0.09954682,
        0.16819162,
        -0.17518792,
        0.14306406,
        -0.12513171,
        -0.33386809,
        -0.01332326,
        0.00966931,
        -0.22051066,
        0.09310214
      ],
      [
        0.37899359,
        0.16844639,
        0.23765784,
        -0.03524489,
        -0.06314083,
        0.15319042,
        -0.1658239,
        0.02138755,
        0.09579538,
        -0.20147426,
        -0.00948496,
        0.02198273,
        -0.1260085,
        0.08075643,
        -0.21337504,
        -0.13473713,
        0.01208196,
        0.08926685,
        0.21878541,
        -0.07828188,
        -0.03842482,
        -0.25404286,
        0.12144934,
        0.13458541,
        0.06809777
      ],
      [
        0.18087667,
        -0.07318794,
        -0.0505398,
        -0.04466656,
        0.08273691,
        0.12919831,
        0.13079798,
        -0.13986956,
        -0.0843219,
        0.32505482,
        0.07220364,
        -0.09906145,
        -0.17591659,
        -0.0169835,
        -0.10687136,
        -0.01596038,
        -0.08089738,
        0.01510112,
        -0.0598995,
        0.06558681,
        0.05385713,
        0.06680126,
        -0.03080773,
        0.12504967,
        0.09540665
      ],
      [
        -0.02863826,
        -0.09422844,
        0.12291445,
        -0.25055887,
        0.03464089,
        0.04502183,
        -0.34039322,
        0.07537518,
        0.1388018,
        -0.26993626,
        0.27940059,
        0.1169001,
        -0.07975773,
        0.2033543,
        -0.16039447,
        0.19940192,
        -0.20573914,
        -0.38264308,
        -0.04587893,
        -0.09673183,
        -0.03049289,
        -0.0321438,
        -0.12136457,
        0.00961879,
        0.28009045
      ],
      [
        0.05218507,
        0.1505244,
        -0.12907433,
        0.01816159,
        -0.01764366,
        -0.22728843,
        -0.10497157,
        -0.11772583,
        -0.33105176,
        -0.2770647,
        -0.0338898,
        -0.26120835,
        -0.02988244,
        0.24267476,
        0.03573056,
        0.0288332,
        0.16123205,
        -0.05296596,
        0.06455109,
        -0.11573072,
        -0.0149704,
        -0.19531308,
        0.09949854,
        -0.18907719,
        0.26287645
      ]
    ],
    "b1": [
      0.17272833140790284,
      0.06133815192027138,
      -0.3015065063567202,
      -0.10386722067437368,
      0.02543197371967364,
      -0.13026876262005602,
      -0.185273949838954,
      0.018187662676443818,
      -0.08053607591573085,
      0.14761264609717042,
      0.017579449407618315,
      -0.07906243634969706,
      -0.08221467820797751,
      0.1126540599570698,
      0.24405135403568912,
      -0.006491693481344114,
      0.011620480158392546,
      -0.18298319889857384,
      0.1895756920271744,
      0.0035418966869542757,
      -0.03394548693947584,
      0.040574307803005104,
      -0.11168974780722682,
      0.21290022640280018,
      -0.05797341791984233,
      0.018203754306165165,
      0.15274801170259458,
      -0.06685740516652611,
      0.30539812361726354,
      0.013456435300728401,
      0.0033760969835513644,
      -0.11274936058097815
    ],
    "w2": [
      [
        -0.04593911,
        -0.80899987,
        -0.62995836,
        0.67325089,
        0.7986918,
        -0.58168838,
        -0.75173005,
        0.73842468,
        0.57081657,
        0.53560174,
        -0.61744912,
        0.52445746,
        0.67375686,
        -0.84254239,
        0.56427088,
        -0.44613694,
        -0.46404807,
        -0.62912394,
        0.50805795,
        -0.56815233,
        0.68586887,
        0.67718143,
        -0.60077074,
        -0.58468732,
        0.62613583,
        -0.6438166,
        0.01064348,
        0.73693713,
        -0.39709094,
        0.53903884,
        -0.40356093,
        -0.33209271
      ],
      [
        -0.01399913,
        0.03648385,
        0.00935822,
        -0.06881369,
        -0.00167241,
        0.03759866,
        -0.08585862,
        0.02974852,
        -0.03869446,
        -0.04320364,
        -0.07713978,
        -0.01669752,
        -0.09716044,
        -0.08522386,
        -0.09114114,
        -0.06445621,
        0.03037837,
        -0.01412867,
        -0.05806278,
        0.06453306,
        -0.06834061,
        0.08144054,
        -0.07217781,
        -0.03332521,
        0.09799685,
        -0.0600946,
        -0.0314969,
        0.01301493,
        0.03117623,
        -0.02386679,
        0.06773834,
        -0.04539919
      ]
    ],
    "b2": [
      0.26133671381149115,
      -0.004742093039221045
    ]
  },
  "runtime": {
    "estimatedMacs": 864,
    "parameters": 898,
    "branches": "none",
    "inputFeatures": 25,
    "hidden": 32
  }
}